
\data\
ngram 1=1546
ngram 2=3251

\1-grams:
-0.7553012	</s>
-99	<s>	-0.09292832
-1.904757	A	-0.246063
-3.416641	ABIDE	-0.3008636
-3.240549	ABLE	-0.212157
-2.872572	ABOUT	-0.2458245
-3.115611	ABOVE	-0.313637
-3.416641	ABSURD	-0.2171308
-3.240549	ACADEMIC	-0.3006971
-3.416641	ACCENT	-0.2171308
-3.416641	ACCIDENT	-0.2171308
-3.416641	ACCLAIM	-0.2171308
-3.416641	ACCOMPLISH	-0.3005305
-3.416641	ACCOMPLISHED	-0.3008636
-3.416641	ACCORDION	-0.2171308
-3.416641	ACHE	-0.2171308
-3.416641	ACHES	-0.2171308
-3.416641	ACROSS	-0.2918653
-3.416641	ACTING	-0.3004472
-3.416641	ACTIVITIES	-0.2171308
-3.416641	ACTRESS	-0.2171308
-3.416641	ACTS	-0.2984431
-3.416641	ACTUALLY	-0.2171308
-3.416641	ADD	-0.2171308
-3.416641	ADDED	-0.3007803
-3.416641	ADDITION	-0.2986942
-3.416641	ADVANTAGE	-0.2984431
-3.240549	ADVISEMENT	-0.3932221
-3.240549	AFTER	-0.2999471
-3.416641	AGAIN	-0.2171308
-3.416641	AH	-0.3007803
-3.416641	AHEAD	-0.2171308
-3.416641	AID	-0.2171308
-3.416641	AIL	-0.2171308
-3.240549	AIR	-0.2165248
-3.416641	ALFALFA	-0.298192
-3.416641	ALIMONY	-0.3008636
-2.638489	ALL	-0.2772952
-3.416641	ALLOW	-0.2955881
-3.240549	ALONE	-0.214194
-3.416641	ALPHA	-0.2171308
-2.872572	ALSO	-0.2975216
-3.416641	ALTHOUGH	-0.3007803
-3.416641	ALUMINUM	-0.3008636
-3.240549	ALWAYS	-0.3006138
-3.240549	AM	-0.3932221
-3.416641	AMBIDEXTROUS	-0.3008636
-2.603727	AN	-0.2990286
-3.416641	ANCIENT	-0.3007803
-2.270512	AND	-0.2090518
-3.416641	ANNOYING	-0.3006971
-3.416641	ANSWERS	-0.3008636
-2.872572	ANY	-0.2996134
-3.416641	ANYBODY	-0.3008636
-3.416641	ANYWHERE	-0.2171308
-3.240549	APARTMENTS	-0.4753706
-3.416641	APE	-0.2171308
-3.416641	APPEALING	-0.296934
-3.416641	APPETIZERS	-0.2171308
-3.416641	APPLIANCES	-0.2171308
-3.416641	APPRECIATED	-0.2171308
-3.416641	APPROACHED	-0.2918653
-3.416641	APRONS	-0.2171308
-3.416641	APTITUDE	-0.3008636
-2.395451	ARE	-0.2019883
-3.416641	AREA	-0.2171308
-3.416641	AREN'T	-0.3007803
-3.416641	ARGUE	-0.3008636
-3.240549	ARM	-0.2158168
-3.240549	AROUND	-0.2164237
-3.416641	ARTISTS	-0.3008636
-2.603727	AS	-0.3064717
-3.416641	ASH	-0.2171308
-3.416641	ASK	-0.3002805
-3.416641	ASKED	-0.2991958
-3.416641	ASSAULTS	-0.3004472
-2.939519	AT	-0.2048474
-3.416641	ATE	-0.2171308
-3.416641	ATHLETIC	-0.3008636
-3.416641	ATTENDANCE	-0.298192
-3.416641	ATTENTION	-0.2171308
-3.240549	ATTITUDE	-0.2136856
-3.416641	AUCTION	-0.2171308
-3.416641	AVAILABLE	-0.3008636
-3.240549	AWAY	-0.2166259
-3.115611	BACK	-0.215918
-3.240549	BAD	-0.2168279
-3.416641	BADGER	-0.2171308
-3.416641	BAG	-0.2171308
-3.416641	BAGPIPES	-0.2986942
-3.416641	BALL	-0.2171308
-3.416641	BAN	-0.2171308
-3.416641	BANANA	-0.3008636
-3.416641	BANK	-0.2171308
-3.416641	BANKERS	-0.3008636
-3.416641	BANKS	-0.2991958
-3.416641	BARB'S	-0.3007803
-3.416641	BARN	-0.2171308
-3.416641	BASEBALL	-0.3008636
-3.416641	BASH	-0.2171308
-3.240549	BASKETBALL	-0.2990286
-3.416641	BAT	-0.2171308
-3.416641	BAY	-0.2171308
-2.395451	BE	-0.3072902
-3.240549	BEACH	-0.3932221
-3.416641	BEAM	-0.2171308
-3.416641	BEAR	-0.2171308
-3.416641	BEARD	-0.3008636
-3.416641	BEAST	-0.2171308
-3.416641	BEAT	-0.2171308
-3.416641	BEAUTY	-0.3001972
-3.416641	BECAME	-0.2955881
-3.416641	BECAUSE	-0.2999471
-3.416641	BED	-0.2171308
-3.416641	BEEF	-0.2171308
-3.416641	BEEN	-0.3007803
-3.416641	BEEP	-0.2171308
-3.416641	BEFORE	-0.3008636
-3.240549	BEG	-0.2161204
-3.416641	BEGIN	-0.3004472
-3.416641	BEHAVIOR	-0.3004472
-3.240549	BEING	-0.2997802
-3.416641	BELL	-0.3008636
-3.416641	BEND	-0.2171308
-3.416641	BENDER	-0.2171308
-3.416641	BENEFITS	-0.2171308
-3.240549	BEST	-0.3932221
-3.416641	BETA	-0.2171308
-3.416641	BETTER	-0.3007803
-3.416641	BIBLICAL	-0.3008636
-3.416641	BIDDING	-0.2171308
-2.939519	BIG	-0.2162215
-3.416641	BILL	-0.2171308
-3.416641	BIN	-0.2171308
-3.240549	BIT	-0.2169289
-3.416641	BITTEN	-0.2171308
-3.416641	BITTER	-0.2171308
-3.240549	BLACK	-0.3006138
-3.416641	BLAZE	-0.2171308
-3.416641	BLEND	-0.2171308
-3.416641	BLEW	-0.3007803
-3.416641	BLOAT	-0.2171308
-3.416641	BLOW	-0.2171308
-3.416641	BOAST	-0.2171308
-3.240549	BOAT	-0.3932221
-3.416641	BOG	-0.2171308
-3.416641	BONGOS	-0.2992793
-3.416641	BOOK	-0.2171308
-3.416641	BOOKS	-0.2992793
-3.416641	BOONE	-0.2171308
-3.416641	BOOT	-0.2171308
-3.416641	BOOTH	-0.2171308
-3.416641	BOOTHS	-0.3008636
-3.416641	BORN	-0.2171308
-3.018701	BOTH	-0.2165248
-3.240549	BOUGHT	-0.2105204
-3.416641	BOUNCE	-0.3006971
-3.416641	BOWL	-0.2171308
-3.115611	BOX	-0.313839
-3.416641	BRACELET	-0.2991958
-3.416641	BRAIN	-0.2171308
-3.416641	BRAWN	-0.2171308
-3.416641	BREAD	-0.2171308
-3.416641	BRIAR	-0.2171308
-3.416641	BRIGHT	-0.3008636
-3.416641	BROCCOLI	-0.2986942
-3.416641	BROTHER'S	-0.3008636
-3.416641	BROTHERS	-0.3006971
-3.240549	BROUGHT	-0.2164237
-3.240549	BROWN	-0.3006138
-3.416641	BUBBLE	-0.2171308
-3.416641	BUG	-0.2171308
-3.416641	BUILD	-0.3008636
-3.416641	BULL	-0.2171308
-3.416641	BUMPER	-0.2171308
-3.416641	BUN	-0.2171308
-3.416641	BUNCH	-0.2171308
-3.416641	BUREAUCRACY	-0.2171308
-3.416641	BURN	-0.2171308
-3.416641	BURNER	-0.2171308
-3.416641	BUS	-0.3003639
-3.416641	BUST	-0.2171308
-3.240549	BUT	-0.214194
-3.416641	BUTTONS	-0.2171308
-2.872572	BY	-0.2903332
-3.240549	CABLE	-0.2168279
-3.416641	CAKE	-0.2171308
-3.416641	CAKES	-0.2171308
-3.416641	CALICO	-0.3007803
-3.416641	CALL	-0.2171308
-3.416641	CALLED	-0.3004472
-3.240549	CALLS	-0.3932221
-2.571543	CAN	-0.3289271
-3.416641	CAN'T	-0.3008636
-3.416641	CANNOT	-0.2992793
-3.416641	CANTEEN	-0.3001138
-3.416641	CAR	-0.2171308
-3.416641	CAREFULLY	-0.2171308
-3.416641	CARL	-0.3008636
-3.416641	CARRIED	-0.3002805
-3.416641	CARRY	-0.2999471
-3.416641	CARS	-0.3001138
-3.416641	CART	-0.2171308
-3.240549	CASES	-0.2995298
-3.416641	CASH	-0.2171308
-3.416641	CASUALLY	-0.2171308
-3.240549	CAT	-0.212157
-3.416641	CATASTROPHIC	-0.3008636
-3.416641	CATCH	-0.2171308
-3.416641	CAUGHT	-0.3008636
-3.416641	CAULIFLOWER	-0.2171308
-3.416641	CAUSED	-0.3008636
-3.416641	CELEBRATE	-0.3002805
-3.416641	CEMENT	-0.298192
-3.416641	CENTER	-0.2171308
-3.416641	CHABLIS	-0.2171308
-3.240549	CHAIR	-0.3932221
-3.416641	CHALLENGE	-0.3005305
-3.416641	CHANGE	-0.3001972
-3.416641	CHAP	-0.2171308
-3.416641	CHARLIE	-0.2171308
-3.416641	CHARLIE'S	-0.3008636
-3.416641	CHARM	-0.2171308
-3.416641	CHECK	-0.2171308
-3.416641	CHEER	-0.2171308
-3.416641	CHEESE	-0.2171308
-3.416641	CHILDREN	-0.2986942
-3.416641	CHIN	-0.2171308
-3.416641	CHIP	-0.2171308
-3.240549	CHOCOLATE	-0.4747854
-3.416641	CHOOSE	-0.2171308
-3.416641	CHOP	-0.2171308
-3.416641	CHOSE	-0.2171308
-3.416641	CHOWDER	-0.2171308
-3.416641	CITY	-0.2171308
-3.416641	CLAIM	-0.2171308
-3.416641	CLAMS	-0.2988614
-3.416641	CLASSICAL	-0.3008636
-3.416641	CLEAN	-0.3008636
-3.416641	CLEAR	-0.3008636
-3.416641	CLIFF'S	-0.3008636
-3.416641	CLINGS	-0.296934
-3.416641	COAST	-0.298192
-3.240549	COAT	-0.3932221
-3.416641	COCONUT	-0.3008636
-3.416641	CODE	-0.2171308
-3.240549	COLD	-0.2169289
-3.416641	COLLEGES	-0.3008636
-3.416641	COLORFUL	-0.2171308
-3.416641	COMBED	-0.3008636
-3.240549	COME	-0.2168279
-3.416641	COMING	-0.3004472
-3.416641	COMMON	-0.296934
-3.416641	COMMUNITY	-0.2171308
-3.416641	COMPANY	-0.3006971
-3.416641	COMPETITORS	-0.2171308
-3.416641	COMPLIANCE	-0.3001138
-3.416641	COMPOUNDED	-0.2918653
-3.416641	CONFIDENCE	-0.2991122
-3.240549	CONFIRMATION	-0.2965139
-3.416641	CONSCIOUS	-0.3000304
-3.416641	CONSERVE	-0.2171308
-3.416641	CONSTRUCTION	-0.2171308
-3.416641	CONTAINED	-0.3006971
-3.416641	CONTAINS	-0.3008636
-3.416641	CONTINENTAL	-0.3008636
-3.416641	CONTRACT	-0.2171308
-3.416641	CONTRAST	-0.2171308
-3.416641	CONTRIBUTIONS	-0.3002805
-3.416641	CONVERGE	-0.2171308
-3.416641	CORK	-0.2171308
-3.416641	CORN	-0.2171308
-3.416641	COSTUMES	-0.2992793
-3.416641	COULD	-0.3006138
-3.416641	COUPE	-0.2171308
-3.416641	COURT	-0.2171308
-3.416641	COVERED	-0.2918653
-3.240549	COVERS	-0.4716794
-3.416641	CRACKED	-0.2986942
-3.416641	CRAWL	-0.2171308
-3.416641	CREAM	-0.3008636
-3.416641	CREATURE	-0.2171308
-3.416641	CREDIT	-0.3006971
-3.240549	CRITICAL	-0.3006971
-3.240549	CRUCIFIED	-0.3001972
-3.416641	CUBIC	-0.3008636
-3.416641	CURTAINS	-0.2171308
-3.416641	CUT	-0.3008636
-3.416641	CUTBACKS	-0.3008636
-3.416641	CUTTING	-0.3006971
-3.416641	CYCLE	-0.2171308
-3.416641	DAD	-0.3004472
-3.416641	DAGGER	-0.2171308
-3.416641	DAILY	-0.3008636
-3.416641	DAMAGE	-0.2991122
-3.416641	DAMAGED	-0.2171308
-3.416641	DAMP	-0.2171308
-3.416641	DANCE	-0.2998636
-3.115611	DARK	-0.2165248
-3.416641	DARN	-0.2171308
-3.416641	DART	-0.2171308
-3.416641	DASH	-0.2171308
-2.81458	DAY	-0.2921542
-3.416641	DEAD	-0.2171308
-3.416641	DEADLINE	-0.3008636
-3.240549	DEAL	-0.298192
-3.416641	DECISION	-0.296934
-3.416641	DECORATIVE	-0.3008636
-3.240549	DEER	-0.2142956
-3.416641	DEFENSIVE	-0.3008636
-3.240549	DEFINITELY	-0.2950824
-3.416641	DEGREE	-0.2171308
-3.416641	DEGREES	-0.2171308
-3.416641	DELIGHT	-0.2918653
-3.416641	DELTA	-0.2171308
-3.416641	DEMAND	-0.2988614
-3.416641	DEPOT	-0.3007803
-3.416641	DEPRESS	-0.2171308
-3.416641	DESCRIBE	-0.2918653
-3.416641	DESERVE	-0.2171308
-3.416641	DESERVES	-0.2955881
-3.416641	DESIRE	-0.296934
-3.416641	DESPERATELY	-0.3008636
-3.416641	DESSERT	-0.2171308
-3.416641	DESTROY	-0.3008636
-3.416641	DETAIL	-0.2171308
-3.416641	DIAL	-0.2171308
-3.416641	DICE	-0.2171308
-3.115611	DID	-0.2935615
-3.240549	DIDN'T	-0.3002805
-3.416641	DIED	-0.3005305
-3.416641	DIFFERENT	-0.3008636
-3.416641	DILL	-0.2171308
-3.416641	DINNER	-0.3006971
-3.416641	DIPLOMA	-0.2171308
-3.416641	DIRECTOR	-0.2171308
-3.416641	DIRTY	-0.3008636
-3.416641	DISAPPOINTED	-0.3001138
-3.416641	DISAPPOINTING	-0.2171308
-3.416641	DISCLAIMER	-0.2171308
-3.416641	DISCOVER	-0.3004472
-3.416641	DISCUSSIONS	-0.3007803
-3.416641	DISGUISE	-0.2171308
-3.416641	DISHES	-0.2171308
-3.416641	DISLIKES	-0.3008636
-3.416641	DISPLAY	-0.2991958
-3.416641	DISPLAYED	-0.2999471
-3.416641	DISTRESS	-0.2986942
-3.416641	DISTRICTS	-0.2171308
-3.416641	DIVORCED	-0.3008636
-2.872572	DO	-0.2980245
-3.416641	DOCK	-0.2171308
-3.416641	DOCKS	-0.2171308
-3.416641	DOCTORS	-0.3008636
-3.416641	DOESN'T	-0.3006138
-3.416641	DOG	-0.2171308
-3.416641	DOING	-0.3005305
-3.416641	DOLPHINS	-0.3007803
-3.018701	DON'T	-0.215918
-3.240549	DONE	-0.2986942
-3.416641	DORMITORIES	-0.2171308
-3.416641	DOT	-0.2171308
-3.416641	DOUBLE	-0.2171308
-3.416641	DOUGH	-0.296934
-3.115611	DOWN	-0.213889
-3.416641	DREAD	-0.2171308
-3.416641	DRENCHED	-0.3004472
-3.416641	DRESS	-0.2171308
-3.416641	DRESSES	-0.3007803
-3.416641	DRIFT	-0.298192
-3.416641	DRIFTS	-0.2171308
-3.240549	DRIVEN	-0.3932221
-3.416641	DROOP	-0.2171308
-3.416641	DRUGS	-0.3007803
-3.416641	DUCK	-0.2171308
-3.416641	DUG	-0.2171308
-3.416641	DUSK	-0.2171308
-2.939519	EACH	-0.2663615
-3.416641	EARLY	-0.3005305
-3.416641	EARN	-0.3005305
-3.416641	EASE	-0.2171308
-3.416641	EASTERN	-0.3008636
-3.240549	EASY	-0.2947448
-3.115611	EAT	-0.2157155
-3.416641	ECHO	-0.2171308
-3.416641	ECONOMIC	-0.3008636
-3.416641	ECONOMY	-0.2986105
-3.416641	EDUCATION	-0.2171308
-3.416641	EIGHT	-0.2171308
-3.416641	EITHER	-0.3008636
-3.416641	ELDERLY	-0.3005305
-3.416641	ELSE	-0.3008636
-3.416641	EMBER	-0.2171308
-3.240549	EMPTY	-0.3932221
-3.416641	ENABLING	-0.3008636
-3.416641	END	-0.2171308
-3.416641	ENTERTAINING	-0.3007803
-3.416641	ENTIRE	-0.3008636
-3.416641	EPISODE	-0.298192
-3.416641	EQUIPMENT	-0.3006971
-3.416641	ERROR	-0.2171308
-3.416641	ETIQUETTE	-0.3008636
-3.416641	EVACUATE	-0.2171308
-3.416641	EVEN	-0.2955881
-3.416641	EVENING	-0.2171308
-3.416641	EVENTUALLY	-0.3008636
-3.240549	EVER	-0.2169289
-2.939519	EVERY	-0.2996968
-3.416641	EVERYTHING	-0.3006971
-3.240549	EXACTLY	-0.4760383
-3.416641	EXAM	-0.3008636
-3.416641	EXCELLENT	-0.3008636
-3.416641	EXCEPT	-0.2991122
-3.416641	EXCITEMENT	-0.2171308
-3.416641	EXCLUDED	-0.2171308
-3.416641	EXISTING	-0.3008636
-3.115611	EXPECT	-0.2102129
-3.416641	EXPECTED	-0.2171308
-3.416641	EXPECTS	-0.296934
-3.416641	EXPENSIVE	-0.2171308
-3.416641	EXPERIENCE	-0.3008636
-3.416641	EXPERIMENT	-0.2988614
-3.416641	EXPERIMENTAL	-0.3008636
-3.416641	EXPLORE	-0.2171308
-3.416641	EYES	-0.2171308
-3.416641	FABLE	-0.2171308
-3.240549	FACT	-0.3002805
-3.240549	FAIL	-0.2997802
-3.416641	FAILS	-0.3008636
-3.416641	FAIR	-0.2171308
-3.416641	FALL	-0.2171308
-3.416641	FAMILIES	-0.3002805
-3.416641	FAMILY	-0.3008636
-3.416641	FANS	-0.2171308
-3.240549	FARM	-0.3932221
-3.416641	FAST	-0.2171308
-3.416641	FAT	-0.2171308
-3.416641	FATE	-0.2171308
-3.416641	FATHERS	-0.3008636
-3.416641	FAVOR	-0.2171308
-3.240549	FEAR	-0.2165248
-3.416641	FED	-0.2171308
-3.416641	FEE	-0.2171308
-3.416641	FEED	-0.2171308
-3.240549	FEEL	-0.2138891
-3.416641	FEELING	-0.2984431
-3.416641	FEET	-0.2171308
-3.240549	FELL	-0.2166259
-3.416641	FENDER	-0.2171308
-3.115611	FEW	-0.3002805
-3.416641	FIELD	-0.2171308
-3.416641	FIERCEST	-0.2984431
-3.416641	FIGURES	-0.3008636
-3.416641	FILE	-0.2171308
-3.240549	FILL	-0.2161204
-3.416641	FINAL	-0.2171308
-3.115611	FIND	-0.5181609
-3.416641	FINED	-0.2171308
-3.416641	FINGER	-0.3003639
-3.416641	FIRE	-0.2991122
-3.115611	FIRST	-0.313637
-3.416641	FISH	-0.3007803
-3.240549	FIT	-0.2162215
-3.416641	FITTING	-0.2171308
-3.240549	FIVE	-0.2169289
-3.416641	FLEECY	-0.3008636
-3.416641	FLICKER	-0.2171308
-3.416641	FLIMSY	-0.2171308
-3.416641	FLOOR	-0.2171308
-3.416641	FLOORS	-0.3008636
-3.416641	FLOWERED	-0.3008636
-3.416641	FLOWERS	-0.2992793
-3.416641	FLOWING	-0.3008636
-3.416641	FLYING	-0.3008636
-3.416641	FOAM	-0.3008636
-3.416641	FOE	-0.2171308
-3.416641	FOIL	-0.2171308
-3.416641	FOLD	-0.2171308
-3.416641	FOOD	-0.2171308
-3.416641	FOOL	-0.2171308
-2.302697	FOR	-0.241967
-3.416641	FORCE	-0.2171308
-3.416641	FORGERY	-0.2171308
-3.416641	FORK	-0.2171308
-3.416641	FORKS	-0.2171308
-3.416641	FORM	-0.2171308
-3.416641	FORMULA	-0.2171308
-3.416641	FORT	-0.2171308
-3.416641	FORWARD	-0.2171308
-3.240549	FOUND	-0.3006138
-3.115611	FOUR	-0.2167269
-3.416641	FOX	-0.3008636
-3.416641	FOXTROT	-0.2171308
-3.416641	FRAME	-0.3008636
-3.416641	FREELY	-0.2171308
-3.416641	FRESH	-0.3007803
-3.416641	FRIEND	-0.2988614
-3.416641	FRIENDS	-0.2171308
-3.416641	FROCK	-0.3007803
-2.872572	FROM	-0.2401761
-3.416641	FRUIT	-0.2171308
-3.416641	FRUSTRATION	-0.3008636
-3.416641	FUDGE	-0.2171308
-3.240549	FULL	-0.2139907
-3.416641	FUN	-0.296934
-3.416641	FUNDS	-0.296934
-3.416641	FUNNEL	-0.2171308
-3.416641	FURTHER	-0.3008636
-3.416641	FUTURE	-0.298192
-3.416641	GABLE	-0.2171308
-3.416641	GADGET	-0.2171308
-3.416641	GAINED	-0.3007803
-3.416641	GALLON	-0.2984431
-3.416641	GALORE	-0.2171308
-3.240549	GAME	-0.3932221
-3.018701	GAS	-0.2836738
-3.416641	GASH	-0.2171308
-3.416641	GATHERED	-0.3008636
-3.416641	GEESE	-0.2171308
-3.416641	GENERAL'S	-0.3008636
-3.416641	GENTLY	-0.3006971
-3.416641	GEOLOGICAL	-0.3008636
-3.115611	GET	-0.294998
-3.416641	GIFT	-0.2171308
-3.416641	GIGGLING	-0.2171308
-3.416641	GILL	-0.2171308
-3.240549	GIN	-0.3006971
-3.416641	GINGHAM	-0.3008636
-3.416641	GIRLS	-0.3008636
-3.416641	GIVING	-0.3006971
-3.416641	GLIB	-0.2171308
-3.416641	GLITTER	-0.2171308
-3.416641	GLOBE	-0.2171308
-3.416641	GLOW	-0.2171308
-3.416641	GNAW	-0.2171308
-3.018701	GO	-0.282966
-3.416641	GOAT	-0.2171308
-3.240549	GOLD	-0.2996968
-3.416641	GOLF	-0.2171308
-3.416641	GOLFING	-0.3008636
-3.416641	GONE	-0.2171308
-2.81458	GOOD	-0.2152089
-3.416641	GOOSE	-0.2171308
-2.872572	GOT	-0.2995299
-3.416641	GOVERNOR	-0.2171308
-3.416641	GRADES	-0.3007803
-3.416641	GRADUATION	-0.3008636
-3.416641	GRAIN	-0.2171308
-3.240549	GRANDFATHER	-0.2169289
-3.416641	GRANDMOTHER	-0.3008636
-3.416641	GRANGE	-0.2171308
-3.416641	GRANTS	-0.2984431
-3.416641	GRAPE	-0.2171308
-3.416641	GRAVE	-0.2171308
-3.416641	GREASY	-0.3008636
-3.416641	GREAT	-0.3008636
-3.416641	GREATLY	-0.3008636
-3.416641	GREG	-0.296934
-3.416641	GREY	-0.2986942
-3.240549	GRIEVANCES	-0.3932221
-3.416641	GROPE	-0.2171308
-3.416641	GROUP	-0.2171308
-3.240549	GROW	-0.2169289
-3.416641	GUARANTEES	-0.3002805
-3.416641	GUARD	-0.2988614
-3.416641	GUESS	-0.2171308
-2.81458	HAD	-0.2424037
-3.416641	HAIL	-0.2171308
-3.240549	HAIR	-0.2136856
-3.416641	HALL	-0.2171308
-3.416641	HAM	-0.2171308
-3.416641	HAND	-0.2171308
-3.416641	HANDLE	-0.2991122
-3.416641	HANGING	-0.3007803
-3.115611	HARD	-0.309067
-3.416641	HARK	-0.2171308
-3.416641	HARM	-0.2171308
-3.416641	HARMONIZE	-0.3008636
-3.416641	HARMS	-0.2955881
-3.416641	HARP	-0.2171308
-3.240549	HAS	-0.3005305
-3.416641	HASH	-0.2171308
-3.416641	HASTILY	-0.2171308
-3.416641	HAT	-0.2171308
-3.416641	HATCH	-0.2171308
-3.416641	HATE	-0.2171308
-2.541579	HAVE	-0.2337561
-3.416641	HAVEN'T	-0.3008636
-2.255273	HE	-0.24075
-3.416641	HE'LL	-0.3007803
-3.416641	HEALTHY	-0.2988614
-3.416641	HEAR	-0.2171308
-3.240549	HEART	-0.2142956
-3.240549	HEAT	-0.2169289
-3.018701	HELP	-0.3002805
-3.416641	HEM	-0.2171308
-2.939519	HER	-0.3000305
-3.115611	HERE	-0.313637
-3.416641	HID	-0.2171308
-3.416641	HIDES	-0.2918653
-3.416641	HIGH	-0.2999471
-3.240549	HIGHER	-0.2984431
-3.416641	HIGHWAY	-0.298192
-3.416641	HILL	-0.2171308
-2.872572	HIM	-0.2993628
-3.240549	HIMSELF	-0.296682
-3.416641	HIRES	-0.3007803
-3.416641	HIRING	-0.2918653
-2.81458	HIS	-0.2996968
-3.416641	HISPANIC	-0.3008636
-3.416641	HISTORY	-0.2171308
-3.416641	HITTING	-0.2171308
-3.416641	HOLD	-0.2171308
-3.416641	HOME	-0.2171308
-3.416641	HORN	-0.2171308
-3.416641	HORSEBACK	-0.296934
-3.416641	HOSPITALS	-0.2171308
-3.115611	HOTEL	-0.313738
-3.416641	HOTELS	-0.2992793
-3.240549	HOUSE	-0.2136856
-3.416641	HOUSEHOLD	-0.3006971
-3.240549	HOUSING	-0.4679566
-3.416641	HUGE	-0.3007803
-3.416641	HUM	-0.2171308
-3.416641	HUMIDITY	-0.298192
-2.212521	I	-0.3033476
-3.416641	I'D	-0.3008636
-3.018701	I'M	-0.3673107
-3.416641	I'VE	-0.3008636
-3.416641	ICE	-0.3008636
-3.416641	IDEA	-0.2171308
-3.416641	IDENTICAL	-0.2171308
-3.416641	IDIOTIC	-0.3008636
-2.939519	IF	-0.5420667
-3.416641	ILLEGAL	-0.296934
-3.416641	IMMEDIATE	-0.3008636
-3.416641	IMMEDIATELY	-0.2171308
-3.416641	IMPOSSIBLE	-0.296934
-3.416641	IMPRESS	-0.2171308
-2.355942	IN	-0.3039085
-3.416641	INCIDENTS	-0.2171308
-3.416641	INCOME	-0.2171308
-3.416641	INCREASES	-0.2171308
-3.416641	INDEPENDENT	-0.3008636
-3.416641	INJURED	-0.2171308
-3.416641	INJURIES	-0.3001138
-3.416641	INK	-0.2171308
-3.416641	INNOCENCE	-0.2171308
-3.416641	INNOCENSE	-0.2171308
-3.416641	INSTRUCTIONS	-0.3008636
-3.416641	INSTRUMENTS	-0.2171308
-3.416641	INTACT	-0.2171308
-3.416641	INTELLIGENCE	-0.2171308
-3.240549	INTO	-0.3006138
-3.416641	INVESTMENT	-0.2171308
-2.186192	IS	-0.2532108
-3.416641	ISLANDS	-0.2992793
-3.416641	ISSUE	-0.2171308
-2.355942	IT	-0.3143032
-2.81458	IT'S	-0.2943226
-3.240549	ITEMS	-0.3932221
-3.416641	JACKET	-0.2171308
-3.416641	JAGGED	-0.2171308
-3.416641	JANE	-0.3006971
-3.416641	JEALOUSIES	-0.2986942
-3.416641	JIM'S	-0.3008636
-3.115611	JOB	-0.2161204
-3.240549	JUDGE	-0.2059879
-3.416641	JULIET	-0.2171308
-3.416641	JUMP	-0.3006971
-3.416641	JUMPS	-0.3007803
-3.416641	JUNGLE	-0.2171308
-2.872572	JUST	-0.2935615
-3.416641	KAT	-0.3003639
-3.240549	KEEP	-0.2169289
-3.416641	KEPT	-0.2991122
-3.416641	KEY	-0.3008636
-3.416641	KILO	-0.2171308
-3.416641	KIND	-0.2171308
-3.416641	KITTEN	-0.2171308
-3.416641	KITTENS	-0.2171308
-3.240549	KNEE	-0.3932221
-3.240549	KNEW	-0.214194
-3.416641	KNIFE	-0.2171308
-3.416641	KNITTING	-0.2171308
-3.416641	KNOCK	-0.2171308
-3.416641	KNOT	-0.2171308
-3.018701	KNOW	-0.2125651
-3.416641	KNOWS	-0.3006138
-3.416641	LACED	-0.3001138
-3.416641	LACK	-0.2984431
-3.416641	LACY	-0.3008636
-3.416641	LADLE	-0.2171308
-3.416641	LAIR	-0.2171308
-3.416641	LAKE	-0.2171308
-3.416641	LAMPS	-0.2918653
-3.416641	LANGUAGE	-0.2171308
-3.240549	LARGE	-0.3006971
-3.416641	LARGEST	-0.2984431
-3.416641	LAST	-0.3008636
-3.115611	LATER	-0.313637
-3.416641	LAW	-0.3008636
-3.416641	LAWYERS	-0.3008636
-3.416641	LAX	-0.2171308
-3.416641	LAY	-0.3007803
-3.416641	LAZY	-0.3008636
-3.416641	LEAGUE	-0.2171308
-3.416641	LEAK	-0.2171308
-3.240549	LEAKS	-0.3932221
-3.416641	LEAP	-0.2171308
-3.416641	LEARNED	-0.3008636
-3.416641	LEE	-0.2171308
-3.416641	LEFT	-0.2171308
-3.416641	LEG	-0.2171308
-3.416641	LEGISLATION	-0.2171308
-3.416641	LEGISLATURE	-0.3008636
-3.416641	LEISURE	-0.2986105
-3.416641	LEND	-0.2171308
-3.416641	LENDER	-0.2171308
-3.416641	LESS	-0.2171308
-3.416641	LICK	-0.2171308
-3.416641	LID	-0.2171308
-3.416641	LIE	-0.2171308
-3.416641	LIES	-0.2171308
-3.115611	LIFE	-0.3105957
-3.416641	LIFE'S	-0.3008636
-3.416641	LIGAMENT	-0.3008636
-3.416641	LIGHT	-0.2171308
-3.018701	LIKE	-0.2947448
-3.416641	LIKES	-0.296934
-3.416641	LILY	-0.2171308
-3.416641	LIMA	-0.2171308
-3.416641	LIMB	-0.2171308
-3.416641	LIP	-0.2171308
-3.416641	LIQUOR	-0.2171308
-3.416641	LISP	-0.2171308
-3.416641	LIST	-0.2171308
-3.416641	LIT	-0.2171308
-3.416641	LITTER	-0.2171308
-3.115611	LITTLE	-0.3005305
-3.416641	LIVELY	-0.3008636
-3.416641	LIVES	-0.2991122
-3.240549	LIVING	-0.4768716
-3.416641	LOAN	-0.2171308
-3.416641	LOCK	-0.2171308
-3.240549	LONG	-0.2169289
-3.416641	LONGER	-0.296934
-3.115611	LOOK	-0.395102
-3.115611	LOOKED	-0.2997802
-3.416641	LOOP	-0.2171308
-3.416641	LOSING	-0.3006138
-3.240549	LOSS	-0.3932221
-3.416641	LOST	-0.3007803
-3.416641	LOT	-0.2984431
-3.416641	LOTS	-0.2984431
-3.416641	LOVE	-0.3008636
-3.416641	LOVED	-0.3005305
-3.416641	LOW	-0.2171308
-3.416641	LOWER	-0.3006138
-3.416641	LOYAL	-0.2171308
-3.416641	LUCK	-0.2991958
-3.416641	LUKE	-0.2171308
-3.416641	MABEL	-0.2171308
-3.416641	MACHINERY	-0.2171308
-3.240549	MADE	-0.2059879
-3.416641	MAIL	-0.2918653
-3.416641	MAINTENANCE	-0.2171308
-3.115611	MAKE	-0.2999471
-3.115611	MAKES	-0.3920767
-3.416641	MALL	-0.2171308
-3.416641	MAN'S	-0.3007803
-3.416641	MANDATES	-0.3008636
-3.416641	MANY	-0.3008636
-3.416641	MAP	-0.2171308
-3.416641	MARRIAGE	-0.3006971
-3.416641	MARRIED	-0.3007803
-3.416641	MARSHMALLOWS	-0.3000304
-3.416641	MARVELOUSLY	-0.2171308
-3.416641	MASK	-0.2988614
-3.416641	MASONRY	-0.2986942
-3.416641	MASSIVE	-0.3008636
-3.416641	MAT	-0.2171308
-3.115611	MAY	-0.2987778
-3.416641	MAYBE	-0.3003639
-3.416641	MAYONNAISE	-0.2171308
-2.763428	ME	-0.2777746
-3.416641	MEALS	-0.3005305
-3.416641	MEASURED	-0.2991122
-3.416641	MEAT	-0.2171308
-3.416641	MEATS	-0.2171308
-3.416641	MEDICINE	-0.2171308
-3.416641	MEETING	-0.2171308
-3.416641	MEMBER	-0.2171308
-3.416641	MEN	-0.2171308
-3.416641	MENU	-0.2171308
-3.416641	MERE	-0.2171308
-3.416641	MET	-0.296934
-3.416641	MIKE	-0.2171308
-3.416641	MILE	-0.2171308
-3.416641	MILL	-0.2171308
-3.416641	MILLIONAIRES	-0.2171308
-3.416641	MINUS	-0.3007803
-3.416641	MINUTE	-0.2984431
-3.416641	MISGUIDED	-0.3008636
-3.416641	MISPLACED	-0.3000304
-3.416641	MISPRINT	-0.3008636
-3.416641	MISTAKES	-0.2991122
-3.416641	MITTEN	-0.2171308
-3.416641	MOCK	-0.2171308
-3.416641	MODERN	-0.2991122
-3.416641	MOLD	-0.2171308
-3.416641	MOLE	-0.2171308
-3.416641	MOM	-0.3008636
-3.115611	MONEY	-0.3133338
-2.939519	MORE	-0.2645329
-3.416641	MORNING	-0.2171308
-3.115611	MOST	-0.3003639
-3.416641	MOTHER	-0.3008636
-3.115611	MUCH	-0.2136856
-3.416641	MUCK	-0.2171308
-3.416641	MUNCH	-0.2171308
-3.416641	MUSEUM	-0.3008636
-3.416641	MUSH	-0.2171308
-3.416641	MUSICAL	-0.3008636
-3.240549	MUSICIANS	-0.3003639
-3.416641	MUSK	-0.2171308
-3.416641	MUST	-0.2992793
-3.416641	MUT	-0.2171308
-3.416641	MUTTERING	-0.296934
-2.71767	MY	-0.2991122
-3.240549	MYSELF	-0.2169289
-3.416641	MYSTERIOUS	-0.3008636
-3.240549	NAILED	-0.4752035
-3.416641	NAME	-0.2984431
-3.416641	NANCY'S	-0.2171308
-3.416641	NAP	-0.2171308
-3.416641	NAVAL	-0.2171308
-3.240549	NEAR	-0.2059879
-3.416641	NEARBY	-0.2171308
-3.416641	NEARLY	-0.3008636
-3.416641	NEAT	-0.2171308
-3.416641	NED	-0.2171308
-3.416641	NEED	-0.3008636
-3.240549	NEEDED	-0.2169289
-3.115611	NEEDS	-0.3001972
-3.416641	NEGLECT	-0.2918653
-3.416641	NEST	-0.2171308
-3.115611	NEVER	-0.3974405
-3.115611	NEW	-0.2167269
-3.240549	NICE	-0.2169289
-3.018701	NIGHT	-0.2824598
-3.416641	NINE	-0.2171308
-3.416641	NINETY-THREE	-0.3006971
-2.939519	NO	-0.2157156
-3.416641	NOBODY	-0.3003639
-3.416641	NOD	-0.2171308
-3.115611	NOT	-0.2951667
-3.416641	NOTCH	-0.3006971
-3.416641	NOTED	-0.2918653
-3.115611	NOTHING	-0.3948507
-3.416641	NOTICED	-0.3004472
-3.416641	NOVEMBER	-0.2171308
-3.240549	NOW	-0.4767051
-3.240549	NUMBER	-0.4745344
-3.416641	NUT	-0.2171308
-3.240549	OBSERVE	-0.2164237
-3.416641	OBSTACLES	-0.2171308
-3.416641	OBTAIN	-0.3008636
-3.416641	OBTAINING	-0.3004472
-3.416641	OCCUR	-0.2171308
-3.416641	OCEAN	-0.2171308
-3.416641	ODD	-0.3008636
-2.226309	OF	-0.2359443
-3.240549	OFF	-0.2997802
-3.240549	OFFENSIVE	-0.4760383
-3.416641	OFFICIAL	-0.3008636
-3.115611	OFTEN	-0.298945
-3.416641	OIL	-0.2171308
-3.416641	OILY	-0.3008636
-3.416641	OK	-0.2171308
-2.939519	OLD	-0.2671717
-3.416641	OMITTED	-0.2171308
-2.638489	ON	-0.6541114
-2.763428	ONE	-0.2125651
-3.416641	ONE'S	-0.3008636
-2.939519	ONLY	-0.2901626
-3.416641	OOZE	-0.3003639
-3.240549	OPEN	-0.2916104
-2.81458	OR	-0.2921202
-3.416641	ORDER	-0.2918653
-3.416641	ORGAN	-0.2171308
-3.416641	ORIGINAL	-0.3004472
-3.416641	OSCAR	-0.2171308
-3.018701	OTHER	-0.3673107
-2.872572	OUR	-0.2996968
-3.018701	OUT	-0.2800216
-3.416641	OUTDOORS	-0.3000304
-3.416641	OUTGREW	-0.3005305
-3.240549	OVER	-0.2916954
-3.416641	OVERALLS	-0.2171308
-3.416641	OVERWHELMING	-0.3001972
-3.416641	OWE	-0.2171308
-3.416641	OWL	-0.2171308
-3.416641	OWN	-0.3007803
-3.240549	OWNER	-0.3006971
-3.416641	OWNERS	-0.3008636
-3.416641	PACE	-0.2171308
-3.416641	PACKAGE	-0.3008636
-3.416641	PAD	-0.2171308
-3.416641	PAGE	-0.2171308
-3.416641	PAID	-0.2171308
-3.416641	PAIN	-0.2171308
-3.240549	PAINT	-0.2105204
-3.416641	PAINTERS	-0.2171308
-3.416641	PAINTINGS	-0.3001138
-3.416641	PAIR	-0.2984431
-3.416641	PALE	-0.2171308
-3.416641	PANEL	-0.2171308
-3.416641	PANT	-0.2171308
-3.416641	PAPA	-0.2171308
-3.416641	PARK	-0.2171308
-3.240549	PART	-0.2139907
-3.416641	PARTICIPATE	-0.2991122
-3.416641	PARTS	-0.3008636
-3.416641	PAST	-0.2171308
-3.416641	PASTE	-0.2171308
-3.416641	PAT	-0.2171308
-3.416641	PAY	-0.2171308
-3.416641	PEACH	-0.2171308
-3.416641	PEAS	-0.2171308
-3.416641	PECK	-0.2984431
-3.416641	PEER	-0.2171308
-2.939519	PEOPLE	-0.3480026
-3.416641	PERFORMANCE	-0.3008636
-3.416641	PERIOD	-0.2984431
-3.416641	PERSONAL	-0.3007803
-3.416641	PET	-0.2171308
-3.416641	PETE	-0.2171308
-3.416641	PETTICOATS	-0.2171308
-3.240549	PETTY	-0.3006971
-3.115611	PHONE	-0.2164237
-3.416641	PICK	-0.2955881
-3.416641	PICKPOCKET	-0.2991958
-3.416641	PICKPOCKETS	-0.3008636
-3.416641	PICNIC	-0.3000304
-3.416641	PIE	-0.3006971
-3.416641	PILE	-0.2171308
-3.416641	PILL	-0.2171308
-3.416641	PINK	-0.2171308
-3.416641	PIT	-0.2171308
-3.416641	PITTING	-0.2171308
-3.115611	PLACE	-0.2984431
-3.416641	PLACES	-0.3006971
-3.416641	PLANT	-0.3006971
-3.240549	PLAY	-0.2161204
-3.115611	PLAYED	-0.2162215
-3.416641	PLAYERS	-0.3006971
-3.416641	PLAYS	-0.3008636
-3.240549	PLEASE	-0.3006138
-3.416641	PLEASED	-0.3001138
-3.240549	PLEASURE	-0.2142956
-3.416641	PLOT	-0.298192
-3.416641	PLUMBING	-0.3007803
-3.416641	POCKET	-0.2171308
-3.416641	POCKETS	-0.2984431
-3.416641	POLE	-0.2171308
-3.416641	POND	-0.2171308
-3.416641	POOR	-0.2171308
-3.416641	POPULAR	-0.3001138
-3.416641	POPULARITY	-0.2171308
-3.416641	POPULATED	-0.2171308
-3.240549	PORCH	-0.2169289
-3.416641	PORCUPINES	-0.3008636
-3.416641	PORK	-0.2171308
-3.416641	PORT	-0.2171308
-3.416641	PORTRAIT	-0.2171308
-3.416641	POSITION	-0.3007803
-3.416641	POSTDATE	-0.2955881
-3.416641	POSTPONED	-0.2171308
-3.416641	POT	-0.2171308
-3.416641	POTATOES	-0.2171308
-3.240549	PRACTICAL	-0.2165248
-3.416641	PREACH	-0.2171308
-3.416641	PRECIOUS	-0.2171308
-3.416641	PREDICAMENT	-0.2171308
-3.416641	PREFER	-0.2918653
-3.416641	PREPARED	-0.2988614
-3.416641	PRESCRIBE	-0.3008636
-3.416641	PRESENT	-0.2171308
-3.416641	PRESERVE	-0.2171308
-3.416641	PRETTY	-0.2171308
-3.416641	PREVENTS	-0.2171308
-3.416641	PRICE	-0.3008636
-3.416641	PRIMITIVE	-0.3008636
-3.416641	PRIOR	-0.2171308
-3.240549	PROGRAM	-0.2139907
-3.416641	PRONOUNCED	-0.3008636
-3.416641	PROPER	-0.3008636
-3.416641	PROPOSED	-0.3008636
-3.416641	PROSECUTED	-0.2986942
-3.416641	PROSPECT	-0.2984431
-3.416641	PROUD	-0.3008636
-3.240549	PROVIDES	-0.2986942
-3.416641	PROVOKED	-0.2999471
-3.416641	PROWLER	-0.3007803
-3.416641	PUBLIC	-0.3008636
-3.416641	PULL	-0.2171308
-3.416641	PUNCH	-0.2171308
-3.416641	PUPPETS	-0.3008636
-3.416641	PURE	-0.3007803
-3.416641	PUT	-0.3000304
-3.416641	QUART	-0.2171308
-3.416641	QUEBEC	-0.2171308
-3.115611	QUICK	-0.3004472
-3.240549	QUICKER	-0.2166259
-3.416641	QUICKLY	-0.2171308
-3.240549	QUITE	-0.3006971
-3.416641	QUIVERS	-0.2955881
-3.416641	RACE	-0.2171308
-3.416641	RACKS	-0.2171308
-3.416641	RAG	-0.3006138
-3.416641	RAGE	-0.2171308
-3.416641	RAID	-0.2171308
-3.416641	RAILROAD'S	-0.3008636
-3.240549	RAIN	-0.3932221
-3.416641	RAISINS	-0.3008636
-3.416641	RAKE	-0.2171308
-3.416641	RAKES	-0.2171308
-3.416641	RAMP	-0.2171308
-3.240549	RANGE	-0.2149047
-3.416641	RARE	-0.3008636
-3.416641	RAT	-0.2171308
-3.416641	RATE	-0.2171308
-3.416641	RATHER	-0.3008636
-3.416641	RATTLE	-0.2171308
-3.416641	RAVE	-0.2171308
-3.416641	RAY	-0.2171308
-3.416641	REACH	-0.2171308
-3.416641	READ	-0.2171308
-3.416641	READY	-0.2988614
-3.240549	REAL	-0.3006971
-2.81458	REALLY	-0.3327866
-3.416641	REAP	-0.2171308
-3.240549	RECEIVED	-0.2998636
-3.416641	RED	-0.2171308
-3.416641	RED-HANDED	-0.2171308
-3.416641	REEF	-0.2171308
-3.416641	REEK	-0.2171308
-3.416641	REFER	-0.2171308
-3.416641	REFLECT	-0.3002805
-3.416641	REFLEXES	-0.2992793
-3.416641	REGULAR	-0.3008636
-3.416641	REGULARLY	-0.3006971
-3.416641	REGULATIONS	-0.2171308
-3.416641	RELAXED	-0.2171308
-3.416641	REMAINS	-0.2918653
-3.416641	RENTER	-0.2171308
-3.416641	REPLACE	-0.2991122
-3.416641	REPORT	-0.2171308
-3.416641	REPORTED	-0.2171308
-3.416641	REPRESS	-0.2171308
-3.416641	REQUESTS	-0.3001972
-3.416641	REQUIRED	-0.2171308
-3.416641	REQUIRES	-0.3005305
-3.416641	RESEMBLE	-0.3007803
-3.416641	RESERVE	-0.2171308
-3.416641	RESPECT	-0.2171308
-3.416641	REST	-0.2171308
-3.416641	RESULTED	-0.2171308
-3.416641	RESULTS	-0.3001138
-3.416641	RETIREMENT	-0.3008636
-3.416641	RETRACT	-0.2171308
-3.416641	REVIEW	-0.3005305
-3.416641	REWARDED	-0.3004472
-3.416641	RICH	-0.2171308
-3.416641	RID	-0.2171308
-3.115611	RIDE	-0.2157155
-3.240549	RIGHT	-0.2167269
-3.416641	RIP	-0.2171308
-3.240549	RISE	-0.2169289
-3.416641	ROAST	-0.3008636
-3.416641	ROBIN	-0.3008636
-3.416641	ROCK	-0.2171308
-3.416641	ROCKS	-0.2171308
-3.416641	RODE	-0.3008636
-3.416641	ROLL	-0.2984431
-3.416641	ROMANTIC	-0.3008636
-3.416641	ROMEO	-0.2171308
-3.416641	ROOM	-0.3003639
-3.416641	ROOT	-0.2171308
-3.240549	ROSES	-0.4767883
-3.416641	ROW	-0.2171308
-3.416641	RULED	-0.2991122
-3.416641	RUNG	-0.2171308
-3.416641	RUST	-0.2171308
-3.416641	RUT	-0.2171308
-3.416641	SABLE	-0.2171308
-3.416641	SACRIFICE	-0.2171308
-3.416641	SADDLE	-0.2171308
-2.939519	SAID	-0.3416657
-3.416641	SAIL	-0.2171308
-3.416641	SAKE	-0.2171308
-3.416641	SAME	-0.3008636
-3.240549	SAND	-0.3932221
-3.416641	SAP	-0.2171308
-3.115611	SAT	-0.2157155
-3.416641	SAVE	-0.3006971
-3.240549	SAW	-0.3001138
-3.416641	SAWS	-0.2986942
-3.416641	SCHOLARS	-0.3008636
-3.416641	SCHOOL	-0.3008636
-3.416641	SCHOOLHOUSE	-0.3008636
-3.416641	SCORCH	-0.2171308
-3.240549	SCORE	-0.3932221
-3.416641	SCREAM	-0.296934
-3.416641	SCREECH	-0.2171308
-3.416641	SCREEN	-0.2171308
-3.416641	SCRUBBED	-0.2918653
-3.416641	SCULPTURE	-0.2991122
-3.240549	SEA	-0.2169289
-3.416641	SEAM	-0.2171308
-3.416641	SEAT	-0.2171308
-3.416641	SEE	-0.2171308
-3.416641	SEED	-0.2171308
-3.416641	SEEDS	-0.2171308
-3.416641	SEEMED	-0.3003639
-3.416641	SEEN	-0.3001972
-3.416641	SELDOM	-0.3008636
-3.416641	SELECT	-0.2171308
-3.416641	SELECTED	-0.3008636
-3.240549	SELL	-0.2168279
-3.416641	SENDER	-0.2171308
-3.416641	SERGEANT	-0.2171308
-3.416641	SERIOUSLY	-0.3008636
-3.416641	SERVE	-0.2171308
-3.416641	SERVES	-0.3008636
-3.416641	SERVICE	-0.3008636
-3.416641	SEVEN	-0.2171308
-3.240549	SEVERAL	-0.3006971
-3.416641	SEW	-0.2171308
-3.416641	SEWS	-0.3007803
-3.416641	SHARE	-0.2171308
-3.416641	SHAWL	-0.2171308
-2.638489	SHE	-0.2543265
-3.416641	SHEAR	-0.2171308
-3.416641	SHED	-0.2171308
-3.416641	SHEEP	-0.2171308
-3.416641	SHEER	-0.2171308
-3.416641	SHEET	-0.2171308
-3.416641	SHELL	-0.2171308
-3.416641	SHELLED	-0.3008636
-3.416641	SHELLS	-0.3000304
-3.416641	SHERIFF	-0.3005305
-3.416641	SHIMMERS	-0.3000304
-3.416641	SHIN	-0.2171308
-3.416641	SHIP	-0.2171308
-3.416641	SHOES	-0.2991958
-3.416641	SHOOK	-0.3003639
-3.416641	SHOOT	-0.2171308
-3.416641	SHOP	-0.2171308
-3.416641	SHORE	-0.2171308
-3.115611	SHORT	-0.2137873
-3.416641	SHORTAGE	-0.3008636
-3.416641	SHOT	-0.2171308
-3.416641	SHOULD	-0.2992793
-3.416641	SHOW	-0.2171308
-3.416641	SHOWER	-0.2171308
-3.416641	SHRED	-0.2171308
-3.416641	SHRUGGED	-0.2171308
-3.416641	SHUT	-0.2171308
-3.416641	SHY	-0.2171308
-3.416641	SICKER	-0.2171308
-3.240549	SIDE	-0.2164237
-3.416641	SIERRA	-0.2171308
-3.416641	SIGH	-0.2171308
-3.416641	SIGHT	-0.2171308
-3.416641	SIGN	-0.2171308
-3.416641	SILLY	-0.3007803
-3.416641	SILVERWARE	-0.2998636
-3.416641	SIMPLE	-0.3008636
-3.416641	SIN	-0.2171308
-3.416641	SINCE	-0.2171308
-3.416641	SING	-0.2171308
-3.416641	SINGER'S	-0.3008636
-3.416641	SINGLE	-0.2171308
-3.416641	SINK	-0.2171308
-3.416641	SIP	-0.2171308
-3.416641	SISTER	-0.3007803
-3.416641	SIT	-0.2171308
-3.416641	SITTER	-0.2171308
-3.416641	SITTING	-0.2171308
-3.416641	SITUATION	-0.2171308
-3.416641	SIX	-0.2171308
-3.416641	SKETCH	-0.2171308
-3.416641	SKI	-0.3008636
-3.416641	SKILLFULLY	-0.2986942
-3.416641	SKILLS	-0.2171308
-3.416641	SKIP	-0.3008636
-3.416641	SLAY	-0.2171308
-3.416641	SLEEP	-0.2171308
-3.416641	SLICKER	-0.2171308
-3.416641	SLID	-0.2171308
-3.416641	SLIGHTLY	-0.3008636
-3.416641	SLIM	-0.2171308
-3.240549	SLIP	-0.3932221
-3.240549	SLOWLY	-0.2169289
-3.416641	SLUMS	-0.2986942
-3.240549	SMALL	-0.2169289
-3.416641	SMOKE	-0.3008636
-3.416641	SMOOTH	-0.2918653
-3.416641	SNAKE	-0.2171308
-3.416641	SNOOP	-0.2171308
-3.416641	SNORT	-0.2171308
-3.240549	SNOW	-0.3001972
-3.240549	SO	-0.2981082
-3.416641	SOCIAL	-0.3008636
-3.416641	SOCIALIZED	-0.3008636
-3.240549	SOLD	-0.2165248
-3.416641	SOLICITS	-0.3004472
-2.939519	SOME	-0.2999471
-3.416641	SOMEPLACE	-0.296934
-3.416641	SOMETHING	-0.296934
-3.416641	SOON	-0.3007803
-3.416641	SORT	-0.2171308
-3.416641	SOUL	-0.2171308
-3.416641	SOULS	-0.2997802
-3.416641	SOURCES	-0.2171308
-3.416641	SPACE	-0.2171308
-3.416641	SPADE	-0.2171308
-3.416641	SPAIN	-0.2171308
-3.018701	SPARK	-0.3927172
-3.416641	SPARSELY	-0.3008636
-3.416641	SPEAK	-0.3003639
-3.416641	SPEAKS	-0.3003639
-3.416641	SPENDING	-0.298192
-3.416641	SPIT	-0.2171308
-3.416641	SPLINTER	-0.2171308
-3.416641	SPLIT	-0.2171308
-3.240549	SPORT	-0.3932221
-3.416641	SPRAIN	-0.2171308
-3.416641	SPRAY	-0.2171308
-3.416641	SPREAD	-0.3006971
-3.240549	SPRING	-0.3003639
-3.416641	SPRINKLE	-0.2171308
-3.416641	SQUARED	-0.3007803
-3.416641	STABLE	-0.2171308
-3.416641	STAFF	-0.3008636
-3.416641	STAGECOACH	-0.2171308
-3.416641	STALL	-0.2171308
-3.416641	STANDBY	-0.2998636
-3.115611	START	-0.5181609
-3.240549	STATE	-0.2139907
-3.416641	STATES	-0.2171308
-3.416641	STATUS	-0.296934
-3.416641	STEAK	-0.2171308
-3.416641	STEEL	-0.3008636
-3.416641	STEEP	-0.3008636
-3.416641	STEER	-0.2171308
-3.416641	STEPS	-0.2171308
-3.416641	STICK	-0.2171308
-3.416641	STICKS	-0.2171308
-3.115611	STILL	-0.2964298
-3.416641	STIMULATING	-0.3008636
-3.416641	STOOD	-0.3007803
-3.240549	STORE	-0.2169289
-3.416641	STORM	-0.2171308
-3.240549	STRAIGHT	-0.2985268
-3.416641	STRANGE	-0.2171308
-3.416641	STRAW	-0.3006971
-3.240549	STREET	-0.2136856
-3.416641	STRETCH	-0.2171308
-3.416641	STRETCHER	-0.2171308
-3.416641	STRIKE	-0.3008636
-3.416641	STRONG	-0.2986942
-3.416641	STRONGLY	-0.3008636
-3.240549	STRUCTURES	-0.4768716
-3.416641	STRUGGLED	-0.2171308
-3.416641	STUBBLE	-0.2171308
-3.416641	STUDENTS	-0.3008636
-3.416641	STUDENTS'	-0.3008636
-3.416641	STUFF	-0.2171308
-3.416641	SUBTRACT	-0.2171308
-3.416641	SUBTRACTION	-0.2992793
-3.416641	SUCCESS	-0.2171308
-3.240549	SUCH	-0.2954196
-3.416641	SUDDENLY	-0.3001972
-3.416641	SUGGESTED	-0.2986105
-3.240549	SUIT	-0.2148032
-3.416641	SUM	-0.2988614
-3.416641	SUN	-0.3008636
-3.416641	SUNSHINE	-0.3008636
-3.416641	SUPER	-0.2171308
-3.416641	SUPPLIES	-0.2986942
-3.416641	SUPPRESS	-0.2171308
-3.240549	SURE	-0.2987778
-3.416641	SURROUNDS	-0.2991958
-3.416641	SURVIVE	-0.2171308
-3.240549	SWAM	-0.3006138
-3.416641	SWARM	-0.2171308
-3.416641	SWAY	-0.2171308
-3.416641	SWEATERS	-0.2171308
-3.416641	SWIFTLY	-0.2999471
-3.416641	SWING	-0.3002805
-3.416641	SWORE	-0.2171308
-3.416641	SYMBOLS	-0.2171308
-3.416641	TABLE	-0.2171308
-3.416641	TAIL	-0.2171308
-3.018701	TAKE	-0.2772623
-3.416641	TAKES	-0.2955881
-3.240549	TAKING	-0.2954196
-3.416641	TALKED	-0.3004472
-3.416641	TALL	-0.2171308
-3.416641	TANGO	-0.2171308
-3.416641	TAP	-0.2171308
-3.416641	TASKS	-0.3008636
-3.416641	TAX-AIDED	-0.3008636
-3.416641	TEA	-0.2171308
-3.416641	TEACH	-0.2171308
-3.416641	TEAM	-0.2171308
-3.416641	TELEPHONE	-0.3008636
-3.018701	TELL	-0.2129729
-3.416641	TEMPER	-0.2171308
-3.416641	TENANT'S	-0.3007803
-3.416641	TENDER	-0.2171308
-3.416641	TERM	-0.2171308
-3.018701	THAN	-0.3559135
-2.71767	THAT	-0.2420444
-3.115611	THAT'S	-0.3883503
-1.680244	THE	-0.2132826
-3.240549	THEIR	-0.3004472
-3.240549	THEM	-0.3002805
-3.416641	THEMSELVES	-0.2992793
-3.416641	THEN	-0.3008636
-3.416641	THEORY	-0.2171308
-2.71767	THERE	-0.3570582
-2.603727	THEY	-0.3632084
-3.416641	THEY'LL	-0.3006971
-3.416641	THIGH	-0.2171308
-3.018701	THINGS	-0.2990286
-3.240549	THINK	-0.2999471
-3.416641	THINKS	-0.2999471
-3.416641	THINNER	-0.3006138
-2.71767	THIS	-0.3512147
-3.416641	THORN	-0.2171308
-3.416641	THOROUGHLY	-0.2171308
-3.115611	THOSE	-0.2999471
-3.240549	THOUGH	-0.2168279
-3.240549	THOUGHT	-0.2148032
-3.416641	THREAD	-0.2171308
-3.416641	THREAT	-0.2171308
-3.115611	THREE	-0.2166259
-3.115611	THROUGH	-0.2164237
-3.416641	THURSDAY'S	-0.3008636
-3.416641	TICKER	-0.2171308
-3.416641	TICKS	-0.2171308
-3.416641	TIE	-0.2171308
-3.416641	TILE	-0.2171308
-3.416641	TIMBER	-0.2171308
-3.115611	TIME	-0.309067
-3.416641	TIN	-0.2171308
-3.416641	TIP	-0.2171308
-3.416641	TIPS	-0.2171308
-2.027474	TO	-0.2569026
-3.416641	TOE	-0.2171308
-3.115611	TOGETHER	-0.5181609
-3.416641	TOLD	-0.2171308
-3.240549	TOO	-0.2169289
-3.240549	TOOK	-0.3000304
-3.416641	TOOT	-0.2171308
-3.416641	TOP	-0.2171308
-3.416641	TORE	-0.2171308
-3.416641	TORN	-0.2171308
-3.416641	TORT	-0.2171308
-3.416641	TOUCHDOWN	-0.3008636
-3.416641	TOWARD	-0.2955881
-3.416641	TRACE	-0.2171308
-3.416641	TRADE	-0.2171308
-3.416641	TRADED	-0.2171308
-3.416641	TRADITIONAL	-0.3008636
-3.240549	TRAIN	-0.2169289
-3.416641	TRAIT	-0.2171308
-3.416641	TRANSITION	-0.2988614
-3.416641	TRANSLATED	-0.2171308
-3.416641	TRAVEL	-0.298192
-3.416641	TREAD	-0.2171308
-3.416641	TREEHOUSE	-0.3003639
-3.416641	TRESPASSERS	-0.2998636
-3.416641	TRIBES	-0.2997802
-3.416641	TRIED	-0.296934
-3.416641	TRIFLE	-0.2171308
-3.240549	TRIP	-0.3003639
-3.416641	TRIPS	-0.2988614
-3.416641	TROOP	-0.2171308
-3.416641	TROUBLE	-0.2171308
-3.240549	TRY	-0.4730253
-3.416641	TRYING	-0.296934
-3.416641	TUG	-0.2171308
-3.416641	TWELFTH	-0.3003639
-3.416641	TWICE	-0.3005305
-3.416641	TWILIGHT	-0.3000304
-2.872572	TWO	-0.2570069
-3.416641	UNBEATABLE	-0.2171308
-3.115611	UNDER	-0.3974405
-3.416641	UNFORTUNATELY	-0.3001972
-3.416641	UNIFORM	-0.2171308
-3.416641	UNINTERRUPTED	-0.3007803
-3.416641	UNIT	-0.3006971
-3.416641	UNPLEASANT	-0.3002805
-3.416641	UNSPECIFIED	-0.3008636
-2.81458	UP	-0.2467149
-3.416641	UPBEAT	-0.3007803
-3.416641	UPBRINGING	-0.2991122
-3.416641	UPDATING	-0.2171308
-3.416641	UPGRADE	-0.3002805
-3.416641	UPON	-0.3004472
-3.416641	URCHINS	-0.2171308
-3.416641	URGED	-0.3004472
-3.416641	URGENT	-0.2171308
-3.115611	US	-0.5181609
-3.416641	USE	-0.3008636
-3.240549	USED	-0.296682
-3.416641	USUALLY	-0.3008636
-3.416641	UTMOST	-0.3008636
-3.416641	VALENTINES	-0.2171308
-3.416641	VALIDATED	-0.3008636
-3.416641	VALUE	-0.3008636
-3.416641	VAMP	-0.2171308
-3.416641	VAT	-0.2171308
-2.939519	VERY	-0.2997802
-3.416641	VICTOR	-0.2171308
-3.416641	VITAL	-0.3008636
-3.416641	VOCABULARY	-0.3008636
-3.416641	VOCAL	-0.2171308
-3.240549	VOICE	-0.2136856
-3.416641	VOLUNTEERED	-0.296934
-3.416641	WACK	-0.2171308
-3.416641	WAGES	-0.2992793
-3.416641	WAIT	-0.2988614
-3.018701	WALK	-0.2137873
-3.416641	WALKED	-0.3003639
-3.240549	WALL	-0.3932221
-3.416641	WALLS	-0.2171308
-3.240549	WANT	-0.2963457
-3.416641	WANTED	-0.296934
-3.115611	WARM	-0.2161204
-3.416641	WART	-0.2171308
-2.375248	WAS	-0.2525287
-3.416641	WASH	-0.3006138
-3.416641	WASTE	-0.2171308
-3.416641	WATCHED	-0.2999471
-3.018701	WATER	-0.2826624
-3.416641	WAVES	-0.3008636
-3.416641	WAX	-0.2171308
-3.115611	WAY	-0.2143972
-3.416641	WAYS	-0.2171308
-2.255273	WE	-0.35728
-3.416641	WE'D	-0.3003639
-3.240549	WE'LL	-0.2996133
-3.240549	WE'RE	-0.215918
-3.416641	WE'VE	-0.3007803
-3.240549	WEALTH	-0.3932221
-3.416641	WEAR	-0.2955881
-3.416641	WEAVE	-0.2171308
-3.240549	WEDDING	-0.4768716
-3.416641	WEED	-0.2171308
-3.416641	WEEDS	-0.3007803
-3.416641	WEEK	-0.2171308
-3.416641	WEEKEND	-0.2171308
-3.416641	WEEKS	-0.3006971
-3.416641	WEEP	-0.2171308
-3.416641	WEIGHT	-0.2171308
-3.416641	WELCOME	-0.2171308
-2.939519	WELL	-0.3384209
-3.115611	WENT	-0.2162215
-2.676278	WERE	-0.2925446
-3.416641	WEREN'T	-0.3008636
-3.416641	WEST	-0.2171308
-3.416641	WET	-0.2171308
-3.018701	WHAT	-0.2937307
-3.018701	WHEN	-0.2864788
-3.115611	WHERE	-0.2988614
-3.240549	WHILE	-0.2982757
-3.416641	WHIP	-0.2171308
-3.416641	WHISKY	-0.2171308
-3.240549	WHITE	-0.3932221
-3.416641	WHITE-CAPPED	-0.3008636
-3.115611	WHO	-0.3004472
-3.416641	WHOLE	-0.3008636
-3.416641	WHOOP	-0.2171308
-3.240549	WHY	-0.2169289
-3.416641	WICKED	-0.2171308
-3.416641	WICKER	-0.2171308
-3.416641	WIDE	-0.2171308
-3.416641	WIFE	-0.2988614
-2.763428	WILL	-0.3634607
-3.416641	WILLING	-0.296934
-3.115611	WIN	-0.213889
-3.416641	WINDOW	-0.3008636
-3.240549	WINE	-0.3932221
-3.416641	WINNERS	-0.2171308
-3.416641	WINTER	-0.3006138
-3.416641	WIPE	-0.2171308
-3.416641	WIRE	-0.3008636
-3.416641	WISE	-0.2171308
-3.416641	WISH	-0.2171308
-3.416641	WISHED	-0.296934
-3.416641	WIT	-0.2171308
-3.416641	WITCH	-0.2171308
-2.676278	WITH	-0.2267683
-3.416641	WITTY	-0.2171308
-3.416641	WIVES	-0.2171308
-3.416641	WOE	-0.2171308
-3.416641	WONDERFUL	-0.2171308
-3.416641	WOOLEN	-0.3008636
-3.240549	WORE	-0.295251
-3.240549	WORK	-0.2994463
-3.115611	WORKING	-0.3001972
-3.416641	WORRY	-0.3007803
-3.416641	WORSE	-0.3008636
-3.416641	WOULD	-0.3006138
-3.416641	WRAPPED	-0.2918653
-3.240549	WRITE	-0.2105204
-3.416641	WRITTEN	-0.2171308
-3.416641	XRAY	-0.2171308
-3.416641	XXX	-0.2171308
-3.416641	YANKEE	-0.2171308
-3.240549	YARD	-0.4768716
-3.416641	YARDS	-0.2171308
-3.416641	YEAR	-0.2171308
-3.416641	YEAR'S	-0.3006138
-3.115611	YEARS	-0.3134349
-3.416641	YELL	-0.3003639
-3.240549	YELLOW	-0.3006971
-3.416641	YES	-0.2171308
-3.018701	YET	-0.276133
-2.375248	YOU	-0.2667555
-3.416641	YOU'D	-0.2992793
-3.416641	YOU'LL	-0.3008636
-3.416641	YOU'RE	-0.3007803
-3.115611	YOUNG	-0.2979407
-2.763428	YOUR	-0.2993628
-3.416641	YOURSELF	-0.2171308
-3.416641	ZERO	-0.2171308
-3.416641	ZEST	-0.3008636
-3.416641	ZIP	-0.2171308
-3.416641	ZULU	-0.2171308

\2-grams:
-2.310162	<s> A
-3.213252	<s> ABLE
-3.213252	<s> ABSURD
-3.213252	<s> ACADEMIC
-3.213252	<s> ACHE
-3.213252	<s> ACHES
-3.213252	<s> ADD
-3.213252	<s> ADDITION
-3.213252	<s> AID
-3.213252	<s> AIL
-3.213252	<s> AIR
-3.213252	<s> ALFALFA
-3.213252	<s> ALIMONY
-2.912222	<s> ALL
-3.213252	<s> ALPHA
-3.213252	<s> ALTHOUGH
-3.213252	<s> ALUMINUM
-3.213252	<s> AMBIDEXTROUS
-3.213252	<s> AN
-3.213252	<s> AND
-3.213252	<s> ANY
-3.213252	<s> APE
-2.912222	<s> ARE
-3.213252	<s> AREA
-3.213252	<s> ARM
-3.213252	<s> ASH
-2.912222	<s> AT
-3.213252	<s> ATE
-3.213252	<s> BACK
-3.213252	<s> BAD
-3.213252	<s> BAG
-3.213252	<s> BAGPIPES
-3.213252	<s> BALL
-3.213252	<s> BAN
-3.213252	<s> BANK
-3.213252	<s> BARB'S
-3.213252	<s> BARN
-3.213252	<s> BASH
-3.213252	<s> BASKETBALL
-3.213252	<s> BAT
-3.213252	<s> BE
-3.213252	<s> BEAM
-3.213252	<s> BEAR
-3.213252	<s> BEAST
-3.213252	<s> BEAT
-3.213252	<s> BED
-3.213252	<s> BEEF
-3.213252	<s> BEEP
-3.213252	<s> BEFORE
-2.912222	<s> BEG
-3.213252	<s> BEGIN
-3.213252	<s> BEING
-3.213252	<s> BEND
-3.213252	<s> BENDER
-3.213252	<s> BEST
-3.213252	<s> BETA
-3.213252	<s> BIBLICAL
-3.213252	<s> BIG
-3.213252	<s> BILL
-3.213252	<s> BIN
-3.213252	<s> BIT
-3.213252	<s> BITTEN
-3.213252	<s> BITTER
-3.213252	<s> BLEND
-3.213252	<s> BLOAT
-3.213252	<s> BLOW
-3.213252	<s> BOAST
-3.213252	<s> BOAT
-3.213252	<s> BOG
-3.213252	<s> BOOK
-3.213252	<s> BOONE
-3.213252	<s> BOOT
-3.213252	<s> BOOTH
-3.213252	<s> BORN
-2.611192	<s> BOTH
-3.213252	<s> BOUGHT
-3.213252	<s> BOWL
-3.213252	<s> BRAIN
-3.213252	<s> BRAWN
-3.213252	<s> BREAD
-3.213252	<s> BRIAR
-3.213252	<s> BRIGHT
-3.213252	<s> BROUGHT
-3.213252	<s> BUBBLE
-3.213252	<s> BUG
-3.213252	<s> BULL
-3.213252	<s> BUMPER
-3.213252	<s> BUN
-3.213252	<s> BUNCH
-3.213252	<s> BURN
-3.213252	<s> BUST
-2.912222	<s> BUT
-2.912222	<s> CABLE
-3.213252	<s> CAKE
-3.213252	<s> CAKES
-3.213252	<s> CALL
-3.213252	<s> CAN
-3.213252	<s> CAR
-3.213252	<s> CARL
-3.213252	<s> CART
-3.213252	<s> CASH
-3.213252	<s> CAT
-3.213252	<s> CATASTROPHIC
-3.213252	<s> CATCH
-3.213252	<s> CEMENT
-3.213252	<s> CENTER
-3.213252	<s> CHAIR
-3.213252	<s> CHALLENGE
-3.213252	<s> CHAP
-3.213252	<s> CHARLIE
-3.213252	<s> CHARM
-3.213252	<s> CHEER
-3.213252	<s> CHEESE
-3.213252	<s> CHIP
-2.912222	<s> CHOCOLATE
-3.213252	<s> CHOP
-3.213252	<s> CITY
-3.213252	<s> CLIFF'S
-3.213252	<s> COAT
-3.213252	<s> COCONUT
-3.213252	<s> CODE
-3.213252	<s> COLD
-3.213252	<s> CONSERVE
-3.213252	<s> CONTINENTAL
-3.213252	<s> CONTRACT
-3.213252	<s> CONTRAST
-3.213252	<s> CONVERGE
-3.213252	<s> CORK
-3.213252	<s> CORN
-3.213252	<s> COUPE
-3.213252	<s> COURT
-3.213252	<s> CRAWL
-3.213252	<s> CREATURE
-3.213252	<s> CRITICAL
-3.213252	<s> CYCLE
-3.213252	<s> DAGGER
-3.213252	<s> DAMP
-3.213252	<s> DARK
-3.213252	<s> DARN
-3.213252	<s> DART
-3.213252	<s> DASH
-3.213252	<s> DAY
-3.213252	<s> DEAD
-3.213252	<s> DEER
-3.213252	<s> DELTA
-3.213252	<s> DEPRESS
-3.213252	<s> DESERVE
-3.213252	<s> DIAL
-3.213252	<s> DICE
-2.912222	<s> DID
-3.213252	<s> DILL
-3.213252	<s> DISPLAYED
-3.213252	<s> DO
-3.213252	<s> DOCK
-3.213252	<s> DOCKS
-3.213252	<s> DOCTORS
-2.912222	<s> DON'T
-3.213252	<s> DOT
-3.213252	<s> DOUBLE
-3.213252	<s> DOWN
-3.213252	<s> DREAD
-3.213252	<s> DRESS
-3.213252	<s> DROOP
-3.213252	<s> DUCK
-3.213252	<s> DUG
-3.213252	<s> DUSK
-2.912222	<s> EACH
-3.213252	<s> EASE
-2.912222	<s> EAT
-3.213252	<s> ECHO
-3.213252	<s> EIGHT
-3.213252	<s> ELDERLY
-3.213252	<s> EMBER
-3.213252	<s> END
-3.213252	<s> ERROR
-3.213252	<s> ETIQUETTE
-3.213252	<s> EVEN
-3.213252	<s> EVERYTHING
-3.213252	<s> EXCEPT
-3.213252	<s> EXPLORE
-3.213252	<s> EYES
-3.213252	<s> FABLE
-3.213252	<s> FAIR
-3.213252	<s> FALL
-3.213252	<s> FARM
-3.213252	<s> FAT
-3.213252	<s> FATE
-3.213252	<s> FEAR
-3.213252	<s> FED
-3.213252	<s> FEE
-3.213252	<s> FEED
-3.213252	<s> FEEL
-3.213252	<s> FEET
-3.213252	<s> FELL
-3.213252	<s> FENDER
-3.213252	<s> FILE
-2.912222	<s> FILL
-3.213252	<s> FINAL
-3.213252	<s> FIND
-3.213252	<s> FIT
-3.213252	<s> FITTING
-3.213252	<s> FIVE
-3.213252	<s> FLICKER
-3.213252	<s> FLOOR
-3.213252	<s> FLYING
-3.213252	<s> FOE
-3.213252	<s> FOIL
-3.213252	<s> FOLD
-3.213252	<s> FOOD
-3.213252	<s> FOOL
-3.213252	<s> FOR
-3.213252	<s> FORK
-3.213252	<s> FORKS
-3.213252	<s> FORM
-3.213252	<s> FORT
-3.213252	<s> FORWARD
-3.213252	<s> FOUR
-3.213252	<s> FOXTROT
-3.213252	<s> FRUIT
-3.213252	<s> FUDGE
-3.213252	<s> FULL
-3.213252	<s> FUNNEL
-3.213252	<s> GABLE
-3.213252	<s> GADGET
-3.213252	<s> GALORE
-3.213252	<s> GAS
-3.213252	<s> GASH
-3.213252	<s> GEESE
-3.213252	<s> GENTLY
-3.213252	<s> GET
-3.213252	<s> GILL
-3.213252	<s> GIVING
-3.213252	<s> GLIB
-3.213252	<s> GLITTER
-3.213252	<s> GLOBE
-3.213252	<s> GLOW
-3.213252	<s> GNAW
-3.213252	<s> GO
-3.213252	<s> GOAT
-3.213252	<s> GOLD
-3.213252	<s> GOLF
-3.213252	<s> GOOD
-3.213252	<s> GOOSE
-3.213252	<s> GRAIN
-3.213252	<s> GRANDFATHER
-3.213252	<s> GRANDMOTHER
-3.213252	<s> GRANGE
-3.213252	<s> GRAPE
-3.213252	<s> GRAVE
-3.213252	<s> GROPE
-3.213252	<s> GROUP
-3.213252	<s> GROW
-3.213252	<s> GUESS
-3.213252	<s> HAD
-3.213252	<s> HAIL
-3.213252	<s> HAIR
-3.213252	<s> HALL
-3.213252	<s> HAM
-3.213252	<s> HAND
-3.213252	<s> HANDLE
-3.213252	<s> HARK
-3.213252	<s> HARM
-3.213252	<s> HARP
-3.213252	<s> HASH
-3.213252	<s> HAT
-3.213252	<s> HATCH
-3.213252	<s> HATE
-3.213252	<s> HAVE
-2.009132	<s> HE
-3.213252	<s> HE'LL
-3.213252	<s> HEAR
-3.213252	<s> HEART
-3.213252	<s> HEAT
-2.912222	<s> HELP
-3.213252	<s> HEM
-2.736131	<s> HER
-3.213252	<s> HERE
-3.213252	<s> HID
-3.213252	<s> HILL
-3.213252	<s> HIM
-3.213252	<s> HIRING
-3.213252	<s> HISPANIC
-3.213252	<s> HITTING
-3.213252	<s> HOLD
-3.213252	<s> HORN
-3.213252	<s> HOTEL
-3.213252	<s> HUM
-1.815312	<s> I
-3.213252	<s> I'M
-3.213252	<s> I'VE
-2.912222	<s> IF
-3.213252	<s> IMPRESS
-2.912222	<s> IN
-3.213252	<s> INK
-3.213252	<s> INTACT
-3.213252	<s> IS
-2.171859	<s> IT
-2.514282	<s> IT'S
-3.213252	<s> JACKET
-3.213252	<s> JAGGED
-3.213252	<s> JANE
-3.213252	<s> JUDGE
-3.213252	<s> JULIET
-3.213252	<s> JUNGLE
-3.213252	<s> JUST
-3.213252	<s> KILO
-3.213252	<s> KITTEN
-3.213252	<s> KNEE
-3.213252	<s> KNEW
-3.213252	<s> KNIFE
-3.213252	<s> KNITTING
-3.213252	<s> KNOCK
-3.213252	<s> KNOT
-3.213252	<s> KNOW
-3.213252	<s> LADLE
-3.213252	<s> LAIR
-3.213252	<s> LAKE
-3.213252	<s> LAST
-3.213252	<s> LAX
-3.213252	<s> LEAGUE
-3.213252	<s> LEAK
-3.213252	<s> LEAKS
-3.213252	<s> LEAP
-3.213252	<s> LEE
-3.213252	<s> LEFT
-3.213252	<s> LEND
-3.213252	<s> LENDER
-3.213252	<s> LICK
-3.213252	<s> LID
-3.213252	<s> LIES
-3.213252	<s> LIFE
-3.213252	<s> LIGHT
-3.213252	<s> LIMA
-3.213252	<s> LIMB
-3.213252	<s> LIP
-3.213252	<s> LIQUOR
-3.213252	<s> LISP
-3.213252	<s> LIST
-3.213252	<s> LIT
-3.213252	<s> LITTER
-3.213252	<s> LOCK
-3.213252	<s> LOOK
-3.213252	<s> LOOP
-3.213252	<s> LOW
-3.213252	<s> LOYAL
-3.213252	<s> LUKE
-3.213252	<s> MABEL
-3.213252	<s> MALL
-3.213252	<s> MAP
-3.213252	<s> MAT
-3.213252	<s> MAYBE
-3.213252	<s> ME
-3.213252	<s> MEAT
-3.213252	<s> MEATS
-3.213252	<s> MEMBER
-3.213252	<s> MENU
-3.213252	<s> MERE
-3.213252	<s> MIKE
-3.213252	<s> MILE
-3.213252	<s> MILL
-3.213252	<s> MITTEN
-3.213252	<s> MOCK
-3.213252	<s> MOLD
-3.213252	<s> MOLE
-3.213252	<s> MOM
-2.912222	<s> MOST
-3.213252	<s> MOTHER
-3.213252	<s> MUCH
-3.213252	<s> MUCK
-3.213252	<s> MUNCH
-3.213252	<s> MUSH
-3.213252	<s> MUSK
-3.213252	<s> MUT
-2.912222	<s> MY
-3.213252	<s> NAP
-3.213252	<s> NAVAL
-3.213252	<s> NEAR
-3.213252	<s> NEAT
-3.213252	<s> NED
-3.213252	<s> NEST
-3.213252	<s> NICE
-2.912222	<s> NIGHT
-3.213252	<s> NINE
-3.213252	<s> NO
-3.213252	<s> NOBODY
-3.213252	<s> NOD
-2.736131	<s> NOTHING
-3.213252	<s> NOVEMBER
-2.912222	<s> NOW
-3.213252	<s> NUT
-3.213252	<s> OBSERVE
-3.213252	<s> OCCUR
-3.213252	<s> OF
-3.213252	<s> OK
-2.912222	<s> OLD
-2.912222	<s> ONE
-2.736131	<s> ONLY
-3.213252	<s> OSCAR
-3.213252	<s> OWE
-3.213252	<s> OWL
-3.213252	<s> PACE
-3.213252	<s> PAD
-3.213252	<s> PAGE
-3.213252	<s> PAID
-3.213252	<s> PAIN
-3.213252	<s> PAINT
-3.213252	<s> PALE
-3.213252	<s> PANEL
-3.213252	<s> PANT
-3.213252	<s> PAPA
-3.213252	<s> PARK
-3.213252	<s> PART
-3.213252	<s> PASTE
-3.213252	<s> PAT
-3.213252	<s> PAY
-3.213252	<s> PEACH
-3.213252	<s> PEAS
-3.213252	<s> PEER
-3.213252	<s> PEOPLE
-3.213252	<s> PET
-3.213252	<s> PETE
-3.213252	<s> PHONE
-3.213252	<s> PILE
-3.213252	<s> PILL
-3.213252	<s> PINK
-3.213252	<s> PIT
-3.213252	<s> PITTING
-3.213252	<s> PLAY
-3.213252	<s> PLEASE
-3.213252	<s> POLE
-3.213252	<s> PORCH
-3.213252	<s> PORCUPINES
-3.213252	<s> PORK
-3.213252	<s> PORT
-3.213252	<s> POT
-3.213252	<s> PREACH
-3.213252	<s> PRESERVE
-3.213252	<s> PRETTY
-3.213252	<s> PRIMITIVE
-3.213252	<s> PRIOR
-3.213252	<s> PULL
-3.213252	<s> PUNCH
-3.213252	<s> QUART
-3.213252	<s> QUEBEC
-3.213252	<s> QUICKER
-3.213252	<s> RACE
-3.213252	<s> RACKS
-3.213252	<s> RAGE
-3.213252	<s> RAID
-3.213252	<s> RAIN
-3.213252	<s> RAKE
-3.213252	<s> RAKES
-3.213252	<s> RAMP
-2.912222	<s> RANGE
-3.213252	<s> RAT
-3.213252	<s> RATE
-3.213252	<s> RATTLE
-3.213252	<s> RAVE
-3.213252	<s> RAY
-3.213252	<s> REACH
-3.213252	<s> READ
-3.213252	<s> REAP
-3.213252	<s> RED
-3.213252	<s> REEF
-3.213252	<s> REEK
-3.213252	<s> REFER
-3.213252	<s> REGULAR
-3.213252	<s> RENTER
-3.213252	<s> REPRESS
-3.213252	<s> RESERVE
-3.213252	<s> REST
-3.213252	<s> RETRACT
-3.213252	<s> RICH
-3.213252	<s> RID
-3.213252	<s> RIDE
-3.213252	<s> RIGHT
-3.213252	<s> RIP
-3.213252	<s> RISE
-3.213252	<s> ROCK
-3.213252	<s> ROCKS
-3.213252	<s> ROMEO
-3.213252	<s> ROOT
-3.213252	<s> ROW
-3.213252	<s> RUST
-3.213252	<s> RUT
-3.213252	<s> SABLE
-3.213252	<s> SADDLE
-3.213252	<s> SAID
-3.213252	<s> SAIL
-3.213252	<s> SAKE
-3.213252	<s> SAND
-3.213252	<s> SAP
-3.213252	<s> SAT
-3.213252	<s> SCORCH
-3.213252	<s> SCORE
-3.213252	<s> SCREECH
-3.213252	<s> SEA
-3.213252	<s> SEAM
-3.213252	<s> SEAT
-3.213252	<s> SEE
-3.213252	<s> SEED
-3.213252	<s> SEEDS
-3.213252	<s> SELECT
-3.213252	<s> SELL
-3.213252	<s> SENDER
-3.213252	<s> SERGEANT
-3.213252	<s> SERVE
-3.213252	<s> SEVEN
-3.213252	<s> SEVERAL
-3.213252	<s> SEW
-3.213252	<s> SHARE
-3.213252	<s> SHAWL
-2.171859	<s> SHE
-3.213252	<s> SHEAR
-3.213252	<s> SHED
-3.213252	<s> SHEEP
-3.213252	<s> SHEER
-3.213252	<s> SHEET
-3.213252	<s> SHELL
-3.213252	<s> SHIN
-3.213252	<s> SHIP
-3.213252	<s> SHOOT
-3.213252	<s> SHOP
-3.213252	<s> SHORE
-3.213252	<s> SHORT
-3.213252	<s> SHOT
-3.213252	<s> SHOW
-3.213252	<s> SHRED
-3.213252	<s> SHUT
-3.213252	<s> SHY
-3.213252	<s> SICKER
-3.213252	<s> SIDE
-3.213252	<s> SIERRA
-3.213252	<s> SIGH
-3.213252	<s> SIGHT
-3.213252	<s> SIGN
-3.213252	<s> SIN
-3.213252	<s> SING
-3.213252	<s> SINGLE
-3.213252	<s> SINK
-3.213252	<s> SIP
-3.213252	<s> SIT
-3.213252	<s> SITTER
-3.213252	<s> SITTING
-3.213252	<s> SIX
-3.213252	<s> SKETCH
-3.213252	<s> SKIP
-3.213252	<s> SLAY
-3.213252	<s> SLEEP
-3.213252	<s> SLICKER
-3.213252	<s> SLID
-3.213252	<s> SLIM
-3.213252	<s> SLIP
-3.213252	<s> SNAKE
-3.213252	<s> SNOOP
-3.213252	<s> SNORT
-2.912222	<s> SO
-3.213252	<s> SOLD
-2.912222	<s> SOME
-3.213252	<s> SORT
-3.213252	<s> SOUL
-3.213252	<s> SPACE
-3.213252	<s> SPADE
-3.213252	<s> SPAIN
-2.912222	<s> SPARK
-3.213252	<s> SPIT
-3.213252	<s> SPLIT
-3.213252	<s> SPORT
-3.213252	<s> SPRAIN
-3.213252	<s> SPRAY
-3.213252	<s> SPRING
-3.213252	<s> SPRINKLE
-3.213252	<s> STABLE
-3.213252	<s> STALL
-3.213252	<s> START
-3.213252	<s> STEAK
-3.213252	<s> STEER
-3.213252	<s> STICK
-3.213252	<s> STICKS
-3.213252	<s> STIMULATING
-3.213252	<s> STORE
-3.213252	<s> STORM
-3.213252	<s> STRANGE
-3.213252	<s> STREET
-3.213252	<s> STRETCH
-3.213252	<s> STUBBLE
-3.213252	<s> STUDENTS
-3.213252	<s> SUBTRACT
-3.213252	<s> SUDDENLY
-3.213252	<s> SUIT
-3.213252	<s> SUPER
-3.213252	<s> SUPPRESS
-3.213252	<s> SWARM
-3.213252	<s> SWAY
-3.213252	<s> SWING
-3.213252	<s> SWORE
-3.213252	<s> TABLE
-3.213252	<s> TAIL
-3.213252	<s> TAKE
-3.213252	<s> TALL
-3.213252	<s> TANGO
-3.213252	<s> TAP
-3.213252	<s> TEA
-3.213252	<s> TEACH
-3.213252	<s> TELL
-3.213252	<s> TEMPER
-3.213252	<s> TENDER
-3.213252	<s> TERM
-2.736131	<s> THAT
-2.736131	<s> THAT'S
-1.590003	<s> THE
-3.213252	<s> THEIR
-3.213252	<s> THEN
-2.514282	<s> THERE
-2.368154	<s> THEY
-3.213252	<s> THEY'LL
-3.213252	<s> THIGH
-2.435101	<s> THIS
-3.213252	<s> THORN
-2.912222	<s> THOSE
-3.213252	<s> THOUGH
-3.213252	<s> THOUGHT
-3.213252	<s> THREAD
-3.213252	<s> THREAT
-3.213252	<s> THREE
-3.213252	<s> THROUGH
-3.213252	<s> TICKER
-3.213252	<s> TICKS
-3.213252	<s> TIE
-3.213252	<s> TILE
-3.213252	<s> TIMBER
-3.213252	<s> TIN
-3.213252	<s> TIP
-3.213252	<s> TO
-3.213252	<s> TOE
-3.213252	<s> TOLD
-3.213252	<s> TOOT
-3.213252	<s> TOP
-3.213252	<s> TORE
-3.213252	<s> TORN
-3.213252	<s> TORT
-3.213252	<s> TRACE
-3.213252	<s> TRADE
-3.213252	<s> TRAIN
-3.213252	<s> TRAIT
-3.213252	<s> TRAVEL
-3.213252	<s> TREAD
-3.213252	<s> TRESPASSERS
-3.213252	<s> TROOP
-3.213252	<s> TROUBLE
-3.213252	<s> TRY
-3.213252	<s> TUG
-3.213252	<s> TWICE
-2.736131	<s> TWO
-3.213252	<s> UNFORTUNATELY
-3.213252	<s> UNIFORM
-3.213252	<s> UP
-3.213252	<s> UPGRADE
-3.213252	<s> URGENT
-3.213252	<s> USUALLY
-3.213252	<s> VAMP
-3.213252	<s> VAT
-3.213252	<s> VICTOR
-3.213252	<s> WACK
-3.213252	<s> WAGES
-3.213252	<s> WALK
-3.213252	<s> WALL
-3.213252	<s> WARM
-3.213252	<s> WART
-3.213252	<s> WAS
-3.213252	<s> WASTE
-3.213252	<s> WAX
-1.870829	<s> WE
-2.912222	<s> WE'RE
-3.213252	<s> WE'VE
-3.213252	<s> WEAVE
-3.213252	<s> WEED
-3.213252	<s> WEEP
-3.213252	<s> WELL
-2.736131	<s> WHEN
-3.213252	<s> WHERE
-3.213252	<s> WHIP
-3.213252	<s> WHISKY
-3.213252	<s> WHITE
-3.213252	<s> WHITE-CAPPED
-3.213252	<s> WHO
-3.213252	<s> WHOOP
-2.912222	<s> WHY
-3.213252	<s> WICKED
-3.213252	<s> WICKER
-3.213252	<s> WIDE
-2.912222	<s> WILL
-3.213252	<s> WIN
-3.213252	<s> WINE
-3.213252	<s> WIPE
-3.213252	<s> WISE
-3.213252	<s> WISH
-3.213252	<s> WIT
-3.213252	<s> WITCH
-3.213252	<s> WITH
-3.213252	<s> WITTY
-3.213252	<s> WIVES
-3.213252	<s> WOE
-3.213252	<s> WORSE
-3.213252	<s> WRITE
-3.213252	<s> WRITTEN
-3.213252	<s> XRAY
-3.213252	<s> XXX
-3.213252	<s> YANKEE
-3.213252	<s> YES
-2.912222	<s> YET
-2.611192	<s> YOU
-3.213252	<s> YOU'D
-3.213252	<s> YOU'RE
-2.912222	<s> YOUNG
-3.213252	<s> ZERO
-3.213252	<s> ZIP
-3.213252	<s> ZULU
-2.068186	A </s>
-2.068186	A BADGER
-2.068186	A BIG
-2.068186	A BIT
-2.068186	A BROWN
-2.068186	A BUS
-2.068186	A CALICO
-2.068186	A CHECK
-2.068186	A CLEAN
-2.068186	A COLD
-2.068186	A DIVORCED
-1.591065	A FEW
-2.068186	A FIRE
-2.068186	A FORGERY
-2.068186	A GAS
-2.068186	A GEOLOGICAL
-1.369216	A GOOD
-2.068186	A GRADUATION
-2.068186	A GREAT
-2.068186	A HUGE
-2.068186	A KEY
-2.068186	A LARGE
-2.068186	A LAW
-2.068186	A LIVELY
-2.068186	A LOAN
-2.068186	A LONG
-2.068186	A LOT
-2.068186	A NICE
-2.068186	A NOTCH
-1.767156	A NUMBER
-2.068186	A PECK
-2.068186	A PERIOD
-2.068186	A PICNIC
-2.068186	A PLACE
-2.068186	A PORTRAIT
-1.767156	A PROGRAM
-2.068186	A PRONOUNCED
-1.767156	A QUICK
-2.068186	A RARE
-2.068186	A RATHER
-2.068186	A ROLL
-2.068186	A ROMANTIC
-2.068186	A ROOM
-2.068186	A SHORT
-2.068186	A SIMPLE
-2.068186	A SKI
-2.068186	A SPLINTER
-2.068186	A TREEHOUSE
-2.068186	A TRIFLE
-2.068186	A VITAL
-1.767156	A WEDDING
-1.767156	A YARD
-2.068186	A YELLOW
-0.30103	ABIDE MISTAKES
-0.60206	ABLE </s>
-0.60206	ABLE TO
-1.041393	ABOUT </s>
-1.041393	ABOUT MY
-1.041393	ABOUT PETTY
-0.7403627	ABOUT THE
-1.041393	ABOUT YOURSELF
-0.39794	ABOVE </s>
-0.69897	ABOVE US
-0.30103	ABSURD </s>
-0.60206	ACADEMIC APTITUDE
-0.60206	ACADEMIC BIDDING
-0.30103	ACCENT </s>
-0.30103	ACCIDENT </s>
-0.30103	ACCLAIM </s>
-0.30103	ACCOMPLISH MORE
-0.30103	ACCOMPLISHED ARTISTS
-0.30103	ACCORDION </s>
-0.30103	ACHE </s>
-0.30103	ACHES </s>
-0.30103	ACROSS THE
-0.30103	ACTING BY
-0.30103	ACTIVITIES </s>
-0.30103	ACTRESS </s>
-0.30103	ACTS OF
-0.30103	ACTUALLY </s>
-0.30103	ADD </s>
-0.30103	ADDED BROUGHT
-0.30103	ADDITION AND
-0.30103	ADVANTAGE OF
-0.1760913	ADVISEMENT </s>
-0.60206	AFTER DAY
-0.60206	AFTER NIGHT
-0.30103	AGAIN </s>
-0.30103	AH SLIP
-0.30103	AHEAD </s>
-0.30103	AID </s>
-0.30103	AIL </s>
-0.60206	AIR </s>
-0.60206	AIR EACH
-0.30103	ALFALFA IS
-0.30103	ALIMONY HARMS
-1.278754	ALL </s>
-0.9777236	ALL ABOUT
-1.278754	ALL DISAPPOINTED
-1.278754	ALL ELSE
-1.278754	ALL HAVE
-1.278754	ALL SAT
-0.8016323	ALL THE
-1.278754	ALL YEAR
-0.30103	ALLOW A
-0.60206	ALONE </s>
-0.60206	ALONE WE
-0.30103	ALPHA </s>
-1.079181	ALSO CAN
-1.079181	ALSO COVERS
-1.079181	ALSO GOT
-1.079181	ALSO PROVIDES
-1.079181	ALSO UNDER
-1.079181	ALSO WERE
-0.30103	ALTHOUGH ALWAYS
-0.30103	ALUMINUM SILVERWARE
-0.60206	ALWAYS ALONE
-0.60206	ALWAYS ANSWERS
-0.1760913	AM </s>
-0.30103	AMBIDEXTROUS PICKPOCKETS
-1.380211	AN ACCORDION
-1.380211	AN ACTRESS
-1.380211	AN ANCIENT
-1.380211	AN ENTERTAINING
-1.380211	AN EXCELLENT
-1.380211	AN IMMEDIATE
-1.380211	AN OFFICIAL
-1.380211	AN OILY
-1.380211	AN ORIGINAL
-1.380211	AN UNPLEASANT
-1.380211	AN UNSPECIFIED
-1.380211	AN UPBEAT
-0.30103	ANCIENT BLACK
-1.724276	AND </s>
-1.724276	AND A
-1.724276	AND ARE
-1.724276	AND BONGOS
-1.724276	AND CAULIFLOWER
-1.724276	AND DEAL
-1.724276	AND EMPTY
-1.724276	AND EXCITEMENT
-1.724276	AND FAST
-1.724276	AND FINED
-1.724276	AND FRAME
-1.724276	AND FRUSTRATION
-1.724276	AND HELP
-1.724276	AND NOTICED
-1.724276	AND OLD
-1.724276	AND PETTY
-1.724276	AND PLAYED
-1.724276	AND PRECIOUS
-1.724276	AND QUIVERS
-1.724276	AND RELAXED
-1.423246	AND ROSES
-1.724276	AND SMOKE
-1.724276	AND SOME
-1.724276	AND SUBTRACTION
-1.724276	AND WHITE
-1.724276	AND WITH
-0.30103	ANNOYING PHONE
-0.30103	ANSWERS BANANA
-1.079181	ANY CONTRIBUTIONS
-1.079181	ANY GOVERNOR
-1.079181	ANY MONEY
-1.079181	ANY NEEDED
-1.079181	ANY SOCIAL
-1.079181	ANY WAY
-0.30103	ANYBODY SOLICITS
-0.30103	ANYWHERE </s>
-0.1760913	APARTMENTS ARE
-0.30103	APE </s>
-0.30103	APPEALING TO
-0.30103	APPETIZERS </s>
-0.30103	APPLIANCES </s>
-0.30103	APPRECIATED </s>
-0.30103	APPROACHED THE
-0.30103	APRONS </s>
-0.30103	APTITUDE GUARANTEES
-1.591065	ARE </s>
-1.591065	ARE A
-1.591065	ARE AVAILABLE
-1.591065	ARE DECORATIVE
-1.591065	ARE GONE
-1.591065	ARE LEARNED
-1.591065	ARE LIFE'S
-1.591065	ARE LOSING
-1.591065	ARE MUCH
-1.591065	ARE MUSICAL
-1.290035	ARE OF
-1.591065	ARE OFTEN
-1.591065	ARE PRACTICAL
-1.591065	ARE QUITE
-1.591065	ARE SPARSELY
-1.591065	ARE THE
-1.591065	ARE THROUGH
-1.591065	ARE VERY
-1.591065	ARE YOUR
-0.30103	AREA </s>
-0.30103	AREN'T EASY
-0.30103	ARGUE HISTORY
-0.60206	ARM </s>
-0.60206	ARM AS
-0.60206	AROUND </s>
-0.60206	AROUND OUR
-0.30103	ARTISTS OBTAIN
-1.361728	AS A
-1.361728	AS EVER
-1.361728	AS HE
-1.361728	AS HIGH
-1.060698	AS I
-1.361728	AS INNOCENCE
-1.361728	AS INNOCENSE
-1.361728	AS LAMPS
-1.361728	AS OFFENSIVE
-1.361728	AS SWIFTLY
-1.361728	AS YOU
-0.30103	ASH </s>
-0.30103	ASK ME
-0.30103	ASKED YOU
-0.30103	ASSAULTS FROM
-1	AT </s>
-1	AT FIRST
-1	AT NIGHT
-1	AT THE
-1	AT TWILIGHT
-0.30103	ATE </s>
-0.30103	ATHLETIC ACTIVITIES
-0.30103	ATTENDANCE IS
-0.30103	ATTENTION </s>
-0.60206	ATTITUDE </s>
-0.60206	ATTITUDE IS
-0.30103	AUCTION </s>
-0.30103	AVAILABLE NEARBY
-0.60206	AWAY </s>
-0.60206	AWAY THAN
-0.7781513	BACK </s>
-0.7781513	BACK SPENDING
-0.7781513	BACK THIS
-0.60206	BAD </s>
-0.60206	BAD CALLS
-0.30103	BADGER </s>
-0.30103	BAG </s>
-0.30103	BAGPIPES AND
-0.30103	BALL </s>
-0.30103	BAN </s>
-0.30103	BANANA OIL
-0.30103	BANK </s>
-0.30103	BANKERS EXPECTED
-0.30103	BANKS YOU
-0.30103	BARB'S GOLD
-0.30103	BARN </s>
-0.30103	BASEBALL PLAYERS
-0.30103	BASH </s>
-0.60206	BASKETBALL CAN
-0.60206	BASKETBALL THERE
-0.30103	BAT </s>
-0.30103	BAY </s>
-1.290035	BE AN
-1.591065	BE BETTER
-1.591065	BE DRIVEN
-1.591065	BE FLIMSY
-1.591065	BE FOUND
-1.591065	BE GREATLY
-1.591065	BE HARD
-1.591065	BE MADE
-1.591065	BE MODERN
-1.591065	BE OMITTED
-1.591065	BE POSTPONED
-1.591065	BE PRACTICAL
-1.591065	BE PREPARED
-1.591065	BE PROSECUTED
-1.591065	BE QUITE
-1.591065	BE READY
-1.591065	BE REWARDED
-1.591065	BE VERY
-1.591065	BE WELCOME
-0.1760913	BEACH </s>
-0.30103	BEAM </s>
-0.30103	BEAR </s>
-0.30103	BEARD CLINGS
-0.30103	BEAST </s>
-0.30103	BEAT </s>
-0.30103	BEAUTY THAT
-0.30103	BECAME A
-0.30103	BECAUSE THEY
-0.30103	BED </s>
-0.30103	BEEF </s>
-0.30103	BEEN DONE
-0.30103	BEEP </s>
-0.30103	BEFORE THURSDAY'S
-0.60206	BEG </s>
-0.60206	BEG THAT
-0.30103	BEGIN BY
-0.30103	BEHAVIOR FROM
-0.60206	BEING ABLE
-0.60206	BEING ON
-0.30103	BELL RUNG
-0.30103	BEND </s>
-0.30103	BENDER </s>
-0.30103	BENEFITS </s>
-0.1760913	BEST </s>
-0.30103	BETA </s>
-0.30103	BETTER OFF
-0.30103	BIBLICAL SCHOLARS
-0.30103	BIDDING </s>
-1	BIG </s>
-1	BIG BASEBALL
-1	BIG HOUSE
-1	BIG INVESTMENT
-1	BIG TIPS
-0.30103	BILL </s>
-0.30103	BIN </s>
-0.60206	BIT </s>
-0.60206	BIT CRACKED
-0.30103	BITTEN </s>
-0.30103	BITTER </s>
-0.60206	BLACK FROCK
-0.60206	BLACK SAND
-0.30103	BLAZE </s>
-0.30103	BLEND </s>
-0.30103	BLEW INTO
-0.30103	BLOAT </s>
-0.30103	BLOW </s>
-0.30103	BOAST </s>
-0.1760913	BOAT </s>
-0.30103	BOG </s>
-0.30103	BONGOS ARE
-0.30103	BOOK </s>
-0.30103	BOOKS ARE
-0.30103	BOONE </s>
-0.30103	BOOT </s>
-0.30103	BOOTH </s>
-0.30103	BOOTHS AREN'T
-0.30103	BORN </s>
-0.90309	BOTH </s>
-0.90309	BOTH CARS
-0.90309	BOTH FIGURES
-0.90309	BOTH INJURIES
-0.60206	BOUGHT </s>
-0.60206	BOUGHT A
-0.30103	BOUNCE BACK
-0.30103	BOWL </s>
-0.39794	BOX </s>
-0.69897	BOX CONTAINED
-0.30103	BRACELET WAS
-0.30103	BRAIN </s>
-0.30103	BRAWN </s>
-0.30103	BREAD </s>
-0.30103	BRIAR </s>
-0.30103	BRIGHT SUNSHINE
-0.30103	BROCCOLI AND
-0.30103	BROTHER'S SUCCESS
-0.30103	BROTHERS LOOKED
-0.60206	BROUGHT </s>
-0.60206	BROUGHT ABOUT
-0.60206	BROWN CHAIR
-0.60206	BROWN FOX
-0.30103	BUBBLE </s>
-0.30103	BUG </s>
-0.30103	BUILD DORMITORIES
-0.30103	BULL </s>
-0.30103	BUMPER </s>
-0.30103	BUN </s>
-0.30103	BUNCH </s>
-0.30103	BUREAUCRACY </s>
-0.30103	BURN </s>
-0.30103	BURNER </s>
-0.30103	BUS OR
-0.30103	BUST </s>
-0.60206	BUT </s>
-0.60206	BUT HE
-0.30103	BUTTONS </s>
-1.079181	BY ACCIDENT
-1.079181	BY BIG
-1.079181	BY PHONE
-1.079181	BY THE
-1.079181	BY TRYING
-1.079181	BY WORKING
-0.60206	CABLE </s>
-0.60206	CABLE CONFIRMATION
-0.30103	CAKE </s>
-0.30103	CAKES </s>
-0.30103	CALICO CAT
-0.30103	CALL </s>
-0.30103	CALLED TWO
-0.1760913	CALLS </s>
-1.322219	CAN </s>
-0.544068	CAN BE
-1.322219	CAN HELP
-1.322219	CAN OFTEN
-1.322219	CAN PLAY
-1.322219	CAN RIDE
-1.322219	CAN SCORE
-1.322219	CAN YOU
-0.30103	CAN'T ABIDE
-0.30103	CANNOT BE
-0.30103	CANTEEN WITH
-0.30103	CAR </s>
-0.30103	CAREFULLY </s>
-0.30103	CARL LIVES
-0.30103	CARRIED ME
-0.30103	CARRY AN
-0.30103	CARS WERE
-0.30103	CART </s>
-0.60206	CASES ALSO
-0.60206	CASES WERE
-0.30103	CASH </s>
-0.30103	CASUALLY </s>
-0.60206	CAT </s>
-0.60206	CAT TO
-0.30103	CATASTROPHIC ECONOMIC
-0.30103	CATCH </s>
-0.30103	CAUGHT RED-HANDED
-0.30103	CAULIFLOWER </s>
-0.30103	CAUSED STEEP
-0.30103	CELEBRATE YOUR
-0.30103	CEMENT IS
-0.30103	CENTER </s>
-0.30103	CHABLIS </s>
-0.1760913	CHAIR </s>
-0.30103	CHALLENGE EACH
-0.30103	CHANGE MY
-0.30103	CHAP </s>
-0.30103	CHARLIE </s>
-0.30103	CHARLIE'S DIRTY
-0.30103	CHARM </s>
-0.30103	CHECK </s>
-0.30103	CHEER </s>
-0.30103	CHEESE </s>
-0.30103	CHILDREN AND
-0.30103	CHIN </s>
-0.30103	CHIP </s>
-0.1760913	CHOCOLATE AND
-0.30103	CHOOSE </s>
-0.30103	CHOP </s>
-0.30103	CHOSE </s>
-0.30103	CHOWDER </s>
-0.30103	CITY </s>
-0.30103	CLAIM </s>
-0.30103	CLAMS FOR
-0.30103	CLASSICAL PERFORMANCE
-0.30103	CLEAN REPORT
-0.30103	CLEAR SLUMS
-0.30103	CLIFF'S DISPLAY
-0.30103	CLINGS TO
-0.30103	COAST IS
-0.1760913	COAT </s>
-0.30103	COCONUT CREAM
-0.30103	CODE </s>
-0.60206	COLD </s>
-0.60206	COLD SHOWER
-0.30103	COLLEGES BUILD
-0.30103	COLORFUL </s>
-0.30103	COMBED CASUALLY
-0.60206	COME </s>
-0.60206	COME ALONE
-0.30103	COMING FROM
-0.30103	COMMON TO
-0.30103	COMMUNITY </s>
-0.30103	COMPANY MAY
-0.30103	COMPETITORS </s>
-0.30103	COMPLIANCE WITH
-0.30103	COMPOUNDED THE
-0.30103	CONFIDENCE IN
-0.60206	CONFIRMATION IT
-0.60206	CONFIRMATION OF
-0.30103	CONSCIOUS ALL
-0.30103	CONSERVE </s>
-0.30103	CONSTRUCTION </s>
-0.30103	CONTAINED THREE
-0.30103	CONTAINS SYMBOLS
-0.30103	CONTINENTAL DRIFT
-0.30103	CONTRACT </s>
-0.30103	CONTRAST </s>
-0.30103	CONTRIBUTIONS WILL
-0.30103	CONVERGE </s>
-0.30103	CORK </s>
-0.30103	CORN </s>
-0.30103	COSTUMES ARE
-0.30103	COULD WALK
-0.30103	COUPE </s>
-0.30103	COURT </s>
-0.30103	COVERED THE
-0.1760913	COVERS A
-0.30103	CRACKED AND
-0.30103	CRAWL </s>
-0.30103	CREAM PIE
-0.30103	CREATURE </s>
-0.30103	CREDIT WORKING
-0.60206	CRITICAL ACCLAIM
-0.60206	CRITICAL EQUIPMENT
-0.60206	CRUCIFIED HIM
-0.60206	CRUCIFIED HIMSELF
-0.30103	CUBIC YARDS
-0.30103	CURTAINS </s>
-0.30103	CUT LACY
-0.30103	CUTBACKS NEGLECT
-0.30103	CUTTING BACK
-0.30103	CYCLE </s>
-0.30103	DAD DO
-0.30103	DAGGER </s>
-0.30103	DAILY TASKS
-0.30103	DAMAGE IN
-0.30103	DAMAGED </s>
-0.30103	DAMP </s>
-0.30103	DANCE CAN
-0.7781513	DARK </s>
-0.7781513	DARK HAIR
-0.7781513	DARK SUIT
-0.30103	DARN </s>
-0.30103	DART </s>
-0.30103	DASH </s>
-0.60206	DAY </s>
-1.079181	DAY AFTER
-1.079181	DAY HE
-1.079181	DAY SOME
-1.079181	DAY WE'LL
-0.30103	DEAD </s>
-0.30103	DEADLINE CANNOT
-0.60206	DEAL IN
-0.60206	DEAL WITH
-0.30103	DECISION TO
-0.30103	DECORATIVE ACCENT
-0.60206	DEER </s>
-0.60206	DEER AND
-0.30103	DEFENSIVE UNIT
-0.60206	DEFINITELY A
-0.60206	DEFINITELY SOME
-0.30103	DEGREE </s>
-0.30103	DEGREES </s>
-0.30103	DELIGHT THE
-0.30103	DELTA </s>
-0.30103	DEMAND FOR
-0.30103	DEPOT SLOWLY
-0.30103	DEPRESS </s>
-0.30103	DESCRIBE THE
-0.30103	DESERVE </s>
-0.30103	DESERVES A
-0.30103	DESIRE TO
-0.30103	DESPERATELY NEED
-0.30103	DESSERT </s>
-0.30103	DESTROY CONFIDENCE
-0.30103	DETAIL </s>
-0.30103	DIAL </s>
-0.30103	DICE </s>
-0.7781513	DID A
-0.7781513	DID DAD
-0.7781513	DID YOU
-0.60206	DIDN'T KNOW
-0.60206	DIDN'T LOOK
-0.30103	DIED AT
-0.30103	DIFFERENT PAINTERS
-0.30103	DILL </s>
-0.30103	DINNER TOGETHER
-0.30103	DIPLOMA </s>
-0.30103	DIRECTOR </s>
-0.30103	DIRTY DISHES
-0.30103	DISAPPOINTED WITH
-0.30103	DISAPPOINTING </s>
-0.30103	DISCLAIMER </s>
-0.30103	DISCOVER ABOUT
-0.30103	DISCUSSIONS KEEP
-0.30103	DISGUISE </s>
-0.30103	DISHES </s>
-0.30103	DISLIKES APPETIZERS
-0.30103	DISPLAY WAS
-0.30103	DISPLAYED AS
-0.30103	DISTRESS AND
-0.30103	DISTRICTS </s>
-0.30103	DIVORCED MAN'S
-1.079181	DO ACADEMIC
-1.079181	DO CHARLIE'S
-1.079181	DO MY
-1.079181	DO SOMETHING
-1.079181	DO THEY
-1.079181	DO WELL
-0.30103	DOCK </s>
-0.30103	DOCKS </s>
-0.30103	DOCTORS PRESCRIBE
-0.30103	DOESN'T LIKE
-0.30103	DOG </s>
-0.30103	DOING WELL
-0.30103	DOLPHINS SWAM
-0.90309	DON'T </s>
-0.90309	DON'T ASK
-0.90309	DON'T DO
-0.90309	DON'T THINK
-0.60206	DONE IT
-0.60206	DONE YET
-0.30103	DORMITORIES </s>
-0.30103	DOT </s>
-0.30103	DOUBLE </s>
-0.30103	DOUGH TO
-0.7781513	DOWN </s>
-0.7781513	DOWN AND
-0.7781513	DOWN HERE
-0.30103	DREAD </s>
-0.30103	DRENCHED FROM
-0.30103	DRESS </s>
-0.30103	DRESSES HIMSELF
-0.30103	DRIFT IS
-0.30103	DRIFTS </s>
-0.1760913	DRIVEN </s>
-0.30103	DROOP </s>
-0.30103	DRUGS TOO
-0.30103	DUCK </s>
-0.30103	DUG </s>
-0.30103	DUSK </s>
-0.9542425	EACH </s>
-0.6532125	EACH DAY
-0.9542425	EACH GENERAL'S
-0.9542425	EACH ONE
-0.30103	EARLY EVERY
-0.30103	EARN MORE
-0.30103	EASE </s>
-0.30103	EASTERN COAST
-0.60206	EASY FOR
-0.60206	EASY TO
-0.7781513	EAT </s>
-0.7781513	EAT YET
-0.7781513	EAT YOUR
-0.30103	ECHO </s>
-0.30103	ECONOMIC CUTBACKS
-0.30103	ECONOMY HE
-0.30103	EDUCATION </s>
-0.30103	EIGHT </s>
-0.30103	EITHER WALKED
-0.30103	ELDERLY PEOPLE
-0.30103	ELSE FAILS
-0.30103	EMBER </s>
-0.1760913	EMPTY </s>
-0.30103	ENABLING LEGISLATION
-0.30103	END </s>
-0.30103	ENTERTAINING SPORT
-0.30103	ENTIRE BAY
-0.30103	EPISODE IS
-0.30103	EQUIPMENT NEEDS
-0.30103	ERROR </s>
-0.30103	ETIQUETTE MANDATES
-0.30103	EVACUATE </s>
-0.30103	EVEN A
-0.30103	EVENING </s>
-0.30103	EVENTUALLY BECAME
-0.60206	EVER </s>
-0.60206	EVER SINCE
-1	EVERY DAY
-1	EVERY EVENING
-1	EVERY FORMULA
-1	EVERY MINUTE
-1	EVERY MORNING
-0.30103	EVERYTHING WENT
-0.1760913	EXACTLY AS
-0.30103	EXAM REVIEW
-0.30103	EXCELLENT TEAM
-0.30103	EXCEPT IN
-0.30103	EXCITEMENT </s>
-0.30103	EXCLUDED </s>
-0.30103	EXISTING REGULATIONS
-0.7781513	EXPECT </s>
-0.7781513	EXPECT A
-0.7781513	EXPECT WE'LL
-0.30103	EXPECTED </s>
-0.30103	EXPECTS TO
-0.30103	EXPENSIVE </s>
-0.30103	EXPERIENCE DISTRESS
-0.30103	EXPERIMENT FOR
-0.30103	EXPERIMENTAL HOSPITALS
-0.30103	EXPLORE </s>
-0.30103	EYES </s>
-0.30103	FABLE </s>
-0.60206	FACT CAREFULLY
-0.60206	FACT OUR
-0.60206	FAIL ACTUALLY
-0.60206	FAIL AS
-0.30103	FAILS USE
-0.30103	FAIR </s>
-0.30103	FALL </s>
-0.30103	FAMILIES WILL
-0.30103	FAMILY REQUESTS
-0.30103	FANS </s>
-0.1760913	FARM </s>
-0.30103	FAST </s>
-0.30103	FAT </s>
-0.30103	FATE </s>
-0.30103	FATHERS RULED
-0.30103	FAVOR </s>
-0.60206	FEAR </s>
-0.60206	FEAR IF
-0.30103	FED </s>
-0.30103	FEE </s>
-0.30103	FEED </s>
-0.60206	FEEL </s>
-0.60206	FEEL I
-0.30103	FEELING OF
-0.30103	FEET </s>
-0.60206	FELL </s>
-0.60206	FELL OUT
-0.30103	FENDER </s>
-0.7781513	FEW BAD
-0.7781513	FEW MAY
-0.7781513	FEW WEEKS
-0.30103	FIELD </s>
-0.30103	FIERCEST OF
-0.30103	FIGURES WOULD
-0.30103	FILE </s>
-0.60206	FILL </s>
-0.60206	FILL THAT
-0.30103	FINAL </s>
-0.1249387	FIND </s>
-0.30103	FINED </s>
-0.30103	FINGER HAD
-0.30103	FIRE IN
-0.39794	FIRST </s>
-0.69897	FIRST TIME
-0.30103	FISH SWAM
-0.60206	FIT </s>
-0.60206	FIT ME
-0.30103	FITTING </s>
-0.60206	FIVE </s>
-0.60206	FIVE KITTENS
-0.30103	FLEECY WOOLEN
-0.30103	FLICKER </s>
-0.30103	FLIMSY </s>
-0.30103	FLOOR </s>
-0.30103	FLOORS THOROUGHLY
-0.30103	FLOWERED CURTAINS
-0.30103	FLOWERS BE
-0.30103	FLOWING BEARD
-0.30103	FLYING STANDBY
-0.30103	FOAM SCULPTURE
-0.30103	FOE </s>
-0.30103	FOIL </s>
-0.30103	FOLD </s>
-0.30103	FOOD </s>
-0.30103	FOOL </s>
-1.653213	FOR </s>
-1.176091	FOR A
-1.352183	FOR ANY
-1.653213	FOR BROCCOLI
-1.653213	FOR DISGUISE
-1.653213	FOR EXPERIMENTAL
-1.653213	FOR FUNDS
-1.653213	FOR ME
-1.653213	FOR ODD
-1.653213	FOR ONE
-1.653213	FOR ONE'S
-1.653213	FOR PLEASURE
-1.653213	FOR PLUMBING
-1.653213	FOR POCKETS
-1.653213	FOR PURE
-1.352183	FOR THE
-1.352183	FOR US
-1.653213	FOR WORK
-1.653213	FOR YEARS
-1.653213	FOR YOU
-0.30103	FORCE </s>
-0.30103	FORGERY </s>
-0.30103	FORK </s>
-0.30103	FORKS </s>
-0.30103	FORM </s>
-0.30103	FORMULA </s>
-0.30103	FORT </s>
-0.30103	FORWARD </s>
-0.60206	FOUND ANYWHERE
-0.60206	FOUND MYSELF
-0.7781513	FOUR </s>
-0.7781513	FOUR BROTHERS
-0.7781513	FOUR STATES
-0.30103	FOX JUMPS
-0.30103	FOXTROT </s>
-0.30103	FRAME CONSTRUCTION
-0.30103	FREELY </s>
-0.30103	FRESH SPRING
-0.30103	FRIEND FOR
-0.30103	FRIENDS </s>
-0.30103	FROCK COAT
-1.041393	FROM </s>
-1.041393	FROM A
-1.041393	FROM FRIENDS
-1.041393	FROM INDEPENDENT
-0.7403627	FROM THE
-0.30103	FRUIT </s>
-0.30103	FRUSTRATION OBTAINING
-0.30103	FUDGE </s>
-0.60206	FULL </s>
-0.60206	FULL OF
-0.30103	FUN TO
-0.30103	FUNDS TO
-0.30103	FUNNEL </s>
-0.30103	FURTHER PROPOSED
-0.30103	FUTURE IS
-0.30103	GABLE </s>
-0.30103	GADGET </s>
-0.30103	GAINED CRITICAL
-0.30103	GALLON OF
-0.30103	GALORE </s>
-0.1760913	GAME </s>
-0.544068	GAS </s>
-0.845098	GAS BURNER
-0.845098	GAS SHORTAGE
-0.30103	GASH </s>
-0.30103	GATHERED SHELLS
-0.30103	GEESE </s>
-0.30103	GENERAL'S INTELLIGENCE
-0.30103	GENTLY PLACE
-0.30103	GEOLOGICAL THEORY
-0.7781513	GET A
-0.7781513	GET THINGS
-0.7781513	GET TRADED
-0.30103	GIFT </s>
-0.30103	GIGGLING </s>
-0.30103	GILL </s>
-0.60206	GIN MACHINERY
-0.60206	GIN SAWS
-0.30103	GINGHAM APRONS
-0.30103	GIRLS CUT
-0.30103	GIVING THOSE
-0.30103	GLIB </s>
-0.30103	GLITTER </s>
-0.30103	GLOBE </s>
-0.30103	GLOW </s>
-0.30103	GNAW </s>
-0.544068	GO </s>
-0.845098	GO HIGHER
-0.845098	GO UP
-0.30103	GOAT </s>
-0.60206	GOLD BRACELET
-0.60206	GOLD CAN
-0.30103	GOLF </s>
-0.30103	GOLFING FATHERS
-0.30103	GONE </s>
-1.146128	GOOD </s>
-1.146128	GOOD ATTITUDE
-1.146128	GOOD IDEA
-1.146128	GOOD JOB
-1.146128	GOOD PLACE
-1.146128	GOOD SERVICE
-1.146128	GOOD WIN
-0.30103	GOOSE </s>
-1.079181	GOT DRENCHED
-1.079181	GOT INTO
-1.079181	GOT MARRIED
-1.079181	GOT OUT
-1.079181	GOT TOGETHER
-1.079181	GOT WET
-0.30103	GOVERNOR </s>
-0.30103	GRADES HIGHER
-0.30103	GRADUATION PRESENT
-0.30103	GRAIN </s>
-0.60206	GRANDFATHER </s>
-0.60206	GRANDFATHER LIKES
-0.30103	GRANDMOTHER OUTGREW
-0.30103	GRANGE </s>
-0.30103	GRANTS OF
-0.30103	GRAPE </s>
-0.30103	GRAVE </s>
-0.30103	GREASY WASH
-0.30103	GREAT MEETING
-0.30103	GREATLY APPRECIATED
-0.30103	GREG TO
-0.30103	GREY AND
-0.1760913	GRIEVANCES </s>
-0.30103	GROPE </s>
-0.30103	GROUP </s>
-0.60206	GROW </s>
-0.60206	GROW STRONG
-0.30103	GUARANTEES YOUR
-0.30103	GUARD FOR
-0.30103	GUESS </s>
-1.113943	HAD </s>
-0.8129134	HAD A
-1.113943	HAD FIVE
-1.113943	HAD MY
-1.113943	HAD NO
-1.113943	HAD YOUR
-0.30103	HAIL </s>
-0.60206	HAIR </s>
-0.60206	HAIR IS
-0.30103	HALL </s>
-0.30103	HAM </s>
-0.30103	HAND </s>
-0.30103	HANDLE IT
-0.30103	HANGING AROUND
-0.69897	HARD </s>
-0.39794	HARD TO
-0.30103	HARK </s>
-0.30103	HARM </s>
-0.30103	HARMONIZE MARVELOUSLY
-0.30103	HARMS A
-0.30103	HARP </s>
-0.60206	HAS BEEN
-0.60206	HAS PLAYED
-0.30103	HASH </s>
-0.30103	HASTILY </s>
-0.30103	HAT </s>
-0.30103	HATCH </s>
-0.30103	HATE </s>
-1.414973	HAVE </s>
-1.414973	HAVE A
-1.113943	HAVE AN
-1.414973	HAVE CHABLIS
-1.414973	HAVE DINNER
-1.414973	HAVE HAD
-1.414973	HAVE IT
-1.414973	HAVE LOST
-1.414973	HAVE NO
-1.414973	HAVE OFTEN
-1.414973	HAVE SOMEPLACE
-1.113943	HAVE TO
-0.30103	HAVEN'T SEEN
-1.716003	HE </s>
-1.716003	HE ADDED
-1.716003	HE ALWAYS
-1.716003	HE ASKED
-1.716003	HE CAN'T
-1.716003	HE DRESSES
-1.716003	HE FURTHER
-1.716003	HE GOT
-1.716003	HE HAS
-1.716003	HE HIDES
-1.414973	HE IS
-1.414973	HE NAILED
-1.716003	HE NOTED
-1.716003	HE PLAYED
-1.716003	HE PLAYS
-1.414973	HE REALLY
-1.716003	HE REMAINS
-1.716003	HE SAID
-1.716003	HE SLOWLY
-1.716003	HE SPEAKS
-1.716003	HE STILL
-1.414973	HE TOOK
-1.716003	HE WILL
-1.716003	HE WRAPPED
-0.30103	HE'LL SELL
-0.30103	HEALTHY FOR
-0.30103	HEAR </s>
-0.60206	HEART </s>
-0.60206	HEART AND
-0.60206	HEAT </s>
-0.60206	HEAT COMPOUNDED
-0.90309	HELP CELEBRATE
-0.90309	HELP COLLEGES
-0.90309	HELP GREG
-0.90309	HELP TOO
-0.30103	HEM </s>
-1	HER CLASSICAL
-1	HER DARK
-1	HER POSITION
-1	HER TAX-AIDED
-1	HER UPBRINGING
-0.39794	HERE </s>
-0.69897	HERE UNDER
-0.30103	HID </s>
-0.30103	HIDES THE
-0.30103	HIGH AS
-0.60206	HIGHER IN
-0.60206	HIGHER OR
-0.30103	HIGHWAY IS
-0.30103	HILL </s>
-1	HIM </s>
-0.69897	HIM A
-1	HIM HE
-0.69897	HIM TO
-0.60206	HIMSELF HE
-0.60206	HIMSELF IN
-0.30103	HIRES MUSICIANS
-0.30103	HIRING THE
-1.146128	HIS CHIN
-1.146128	HIS FAVOR
-1.146128	HIS KNEE
-1.146128	HIS LANGUAGE
-1.146128	HIS OWN
-1.146128	HIS POCKET
-1.146128	HIS VOICE
-0.30103	HISPANIC COSTUMES
-0.30103	HISTORY </s>
-0.30103	HITTING </s>
-0.30103	HOLD </s>
-0.30103	HOME </s>
-0.30103	HORN </s>
-0.30103	HORSEBACK TO
-0.30103	HOSPITALS </s>
-0.69897	HOTEL </s>
-0.39794	HOTEL OWNER
-0.30103	HOTELS ARE
-0.60206	HOUSE </s>
-0.60206	HOUSE IS
-0.30103	HOUSEHOLD NEEDS
-0.1760913	HOUSING THE
-0.30103	HUGE PART
-0.30103	HUM </s>
-0.30103	HUMIDITY IS
-1.778151	I ALSO
-1.477121	I AM
-1.778151	I CALLED
-1.778151	I CAN
-1.778151	I CHOOSE
-1.778151	I CHOSE
-1.778151	I DIDN'T
-1.778151	I DON'T
-1.778151	I EXPECT
-1.778151	I FEEL
-1.778151	I GOT
-1.778151	I HAD
-1.778151	I HAVE
-1.778151	I HAVEN'T
-1.778151	I JUST
-1.778151	I LIKE
-1.778151	I LOOKED
-1.778151	I LOVED
-1.778151	I SAID
-1.778151	I SAW
-1.778151	I SCREAM
-1.778151	I SCRUBBED
-1.778151	I SOON
-1.778151	I TELL
-1.778151	I THINK
-1.778151	I THOUGHT
-1.778151	I TRIED
-1.778151	I WANTED
-1.477121	I WAS
-0.30103	I'D PUT
-0.845098	I'M FULL
-0.544068	I'M LIVING
-0.845098	I'M WILLING
-0.30103	I'VE KEPT
-0.30103	ICE PREVENTS
-0.30103	IDEA </s>
-0.30103	IDENTICAL </s>
-0.30103	IDIOTIC PREDICAMENT
-0.845098	IF ANYBODY
-0.243038	IF YOU
-0.30103	ILLEGAL TO
-0.30103	IMMEDIATE DISCLAIMER
-0.30103	IMMEDIATELY </s>
-0.30103	IMPOSSIBLE TO
-0.30103	IMPRESS </s>
-1.556303	IN </s>
-1.556303	IN A
-1.556303	IN AN
-1.556303	IN ATHLETIC
-1.556303	IN BANKS
-1.556303	IN CUBIC
-1.556303	IN FACT
-1.556303	IN GREASY
-0.9542425	IN HIS
-1.556303	IN LATER
-1.556303	IN PARTS
-1.556303	IN PETTICOATS
-1.556303	IN STRAW
-0.7781513	IN THE
-0.30103	INCIDENTS </s>
-0.30103	INCOME </s>
-0.30103	INCREASES </s>
-0.30103	INDEPENDENT SOURCES
-0.30103	INJURED </s>
-0.30103	INJURIES WERE
-0.30103	INK </s>
-0.30103	INNOCENCE </s>
-0.30103	INNOCENSE </s>
-0.30103	INSTRUCTIONS DESPERATELY
-0.30103	INSTRUMENTS </s>
-0.30103	INTACT </s>
-0.30103	INTELLIGENCE </s>
-0.60206	INTO ACTING
-0.60206	INTO LARGE
-0.30103	INVESTMENT </s>
-1.770852	IS </s>
-1.071882	IS A
-1.770852	IS ABOUT
-1.770852	IS AN
-1.770852	IS AS
-1.770852	IS COMBED
-1.469822	IS DEFINITELY
-1.770852	IS GREY
-1.770852	IS HEALTHY
-1.770852	IS IN
-1.770852	IS JUST
-1.770852	IS LACED
-1.770852	IS MEASURED
-1.770852	IS NEARLY
-1.469822	IS NOT
-1.770852	IS OFFENSIVE
-1.770852	IS OVERWHELMING
-1.770852	IS REALLY
-1.770852	IS REPORTED
-1.770852	IS SELDOM
-1.770852	IS SHORT
-1.770852	IS STILL
-1.469822	IS STRAIGHT
-1.770852	IS SUCH
-1.770852	IS THINNER
-1.770852	IS UNBEATABLE
-0.30103	ISLANDS ARE
-0.30103	ISSUE </s>
-1.255273	IT </s>
-1.556303	IT ALSO
-1.556303	IT ANY
-1.556303	IT EVENTUALLY
-1.556303	IT FELL
-1.255273	IT FOR
-1.556303	IT HANGING
-1.556303	IT IMMEDIATELY
-1.556303	IT IN
-1.556303	IT LOOKED
-1.556303	IT REQUIRES
-1.556303	IT SAID
-0.7112045	IT WAS
-1.556303	IT WITH
-1.146128	IT'S A
-1.146128	IT'S BEAUTY
-1.146128	IT'S FUN
-1.146128	IT'S HARD
-1.146128	IT'S ILLEGAL
-1.146128	IT'S IMPOSSIBLE
-1.146128	IT'S TAKING
-0.1760913	ITEMS </s>
-0.30103	JACKET </s>
-0.30103	JAGGED </s>
-0.30103	JANE MAY
-0.30103	JEALOUSIES AND
-0.30103	JIM'S FOAM
-0.7781513	JOB </s>
-0.7781513	JOB ALSO
-0.7781513	JOB PROVIDES
-0.60206	JUDGE </s>
-0.60206	JUDGE THE
-0.30103	JULIET </s>
-0.30103	JUMP FIRST
-0.30103	JUMPS OVER
-0.30103	JUNGLE </s>
-1.079181	JUST A
-1.079181	JUST DIDN'T
-1.079181	JUST DON'T
-1.079181	JUST ONE
-1.079181	JUST SAT
-1.079181	JUST TRY
-0.30103	KAT HAD
-0.60206	KEEP </s>
-0.60206	KEEP STUDENTS'
-0.30103	KEPT IT
-0.30103	KEY ISSUE
-0.30103	KILO </s>
-0.30103	KIND </s>
-0.30103	KITTEN </s>
-0.30103	KITTENS </s>
-0.1760913	KNEE </s>
-0.60206	KNEW </s>
-0.60206	KNEW WE
-0.30103	KNIFE </s>
-0.30103	KNITTING </s>
-0.30103	KNOCK </s>
-0.30103	KNOT </s>
-0.90309	KNOW </s>
-0.90309	KNOW ALL
-0.90309	KNOW WE
-0.90309	KNOW WHERE
-0.30103	KNOWS WHAT
-0.30103	LACED WITH
-0.30103	LACK OF
-0.30103	LACY VALENTINES
-0.30103	LADLE </s>
-0.30103	LAIR </s>
-0.30103	LAKE </s>
-0.30103	LAMPS THE
-0.30103	LANGUAGE </s>
-0.60206	LARGE DRIFTS
-0.60206	LARGE HOUSEHOLD
-0.30103	LARGEST OF
-0.30103	LAST YEAR'S
-0.39794	LATER </s>
-0.69897	LATER YEARS
-0.30103	LAW DEGREE
-0.30103	LAWYERS LOVE
-0.30103	LAX </s>
-0.30103	LAY NEAR
-0.30103	LAZY DOG
-0.30103	LEAGUE </s>
-0.30103	LEAK </s>
-0.1760913	LEAKS </s>
-0.30103	LEAP </s>
-0.30103	LEARNED SKILLS
-0.30103	LEE </s>
-0.30103	LEFT </s>
-0.30103	LEG </s>
-0.30103	LEGISLATION </s>
-0.30103	LEGISLATURE MET
-0.30103	LEISURE WE
-0.30103	LEND </s>
-0.30103	LENDER </s>
-0.30103	LESS </s>
-0.30103	LICK </s>
-0.30103	LID </s>
-0.30103	LIE </s>
-0.30103	LIES </s>
-0.69897	LIFE </s>
-0.39794	LIFE IS
-0.30103	LIFE'S WINNERS
-0.30103	LIGAMENT DAMAGE
-0.30103	LIGHT </s>
-0.90309	LIKE AN
-0.90309	LIKE THAT
-0.90309	LIKE THEM
-0.90309	LIKE TO
-0.30103	LIKES TO
-0.30103	LILY </s>
-0.30103	LIMA </s>
-0.30103	LIMB </s>
-0.30103	LIP </s>
-0.30103	LIQUOR </s>
-0.30103	LISP </s>
-0.30103	LIST </s>
-0.30103	LIT </s>
-0.30103	LITTER </s>
-0.7781513	LITTLE DEMAND
-0.7781513	LITTLE GIRLS
-0.7781513	LITTLE SCHOOLHOUSE
-0.30103	LIVELY HOME
-0.30103	LIVES IN
-0.1760913	LIVING EXACTLY
-0.30103	LOAN </s>
-0.30103	LOCK </s>
-0.60206	LONG </s>
-0.60206	LONG FLOWING
-0.30103	LONGER TO
-0.39794	LOOK FOR
-0.69897	LOOK GOOD
-0.7781513	LOOKED IDENTICAL
-0.7781513	LOOKED LIKE
-0.7781513	LOOKED UP
-0.30103	LOOP </s>
-0.30103	LOSING WATER
-0.1760913	LOSS </s>
-0.30103	LOST THEIR
-0.30103	LOT OF
-0.30103	LOTS OF
-0.30103	LOVE MILLIONAIRES
-0.30103	LOVED EVERY
-0.30103	LOW </s>
-0.30103	LOWER THAN
-0.30103	LOYAL </s>
-0.30103	LUCK WAS
-0.30103	LUKE </s>
-0.30103	MABEL </s>
-0.30103	MACHINERY </s>
-0.60206	MADE </s>
-0.60206	MADE THE
-0.30103	MAIL THE
-0.30103	MAINTENANCE </s>
-0.7781513	MAKE ANY
-0.7781513	MAKE GIN
-0.7781513	MAKE SURE
-0.39794	MAKES A
-0.69897	MAKES OTHER
-0.30103	MALL </s>
-0.30103	MAN'S WEALTH
-0.30103	MANDATES COMPLIANCE
-0.30103	MANY BENEFITS
-0.30103	MAP </s>
-0.30103	MARRIAGE WENT
-0.30103	MARRIED RIGHT
-0.30103	MARSHMALLOWS ON
-0.30103	MARVELOUSLY </s>
-0.30103	MASK FOR
-0.30103	MASONRY AND
-0.30103	MASSIVE ASSAULTS
-0.30103	MAT </s>
-0.7781513	MAY BE
-0.7781513	MAY EARN
-0.7781513	MAY WIN
-0.30103	MAYBE IT'S
-0.30103	MAYONNAISE </s>
-0.6690068	ME </s>
-1.146128	ME AGAIN
-1.146128	ME EVER
-1.146128	ME OFF
-1.146128	ME OUT
-1.146128	ME TO
-0.30103	MEALS EVERY
-0.30103	MEASURED IN
-0.30103	MEAT </s>
-0.30103	MEATS </s>
-0.30103	MEDICINE </s>
-0.30103	MEETING </s>
-0.30103	MEMBER </s>
-0.30103	MEN </s>
-0.30103	MENU </s>
-0.30103	MERE </s>
-0.30103	MET TO
-0.30103	MIKE </s>
-0.30103	MILE </s>
-0.30103	MILL </s>
-0.30103	MILLIONAIRES </s>
-0.30103	MINUS SEVERAL
-0.30103	MINUTE OF
-0.30103	MISGUIDED SOULS
-0.30103	MISPLACED ON
-0.30103	MISPRINT PROVOKED
-0.30103	MISTAKES IN
-0.30103	MITTEN </s>
-0.30103	MOCK </s>
-0.30103	MODERN IN
-0.30103	MOLD </s>
-0.30103	MOLE </s>
-0.30103	MOM STRONGLY
-0.39794	MONEY </s>
-0.69897	MONEY BY
-0.6532125	MORE </s>
-0.9542425	MORE AND
-0.9542425	MORE MONEY
-0.9542425	MORE WATER
-0.30103	MORNING </s>
-0.7781513	MOST ACCOMPLISHED
-0.7781513	MOST WEEDS
-0.7781513	MOST YOUNG
-0.30103	MOTHER SEWS
-0.7781513	MUCH </s>
-0.7781513	MUCH OF
-0.7781513	MUCH QUICKER
-0.30103	MUCK </s>
-0.30103	MUNCH </s>
-0.30103	MUSEUM HIRES
-0.30103	MUSH </s>
-0.30103	MUSICAL INSTRUMENTS
-0.60206	MUSICIANS EVERY
-0.60206	MUSICIANS HARMONIZE
-0.30103	MUSK </s>
-0.30103	MUST BE
-0.30103	MUT </s>
-0.30103	MUTTERING TO
-1.255273	MY BELL
-1.255273	MY BEST
-1.255273	MY GRANDFATHER
-1.255273	MY INSTRUCTIONS
-1.255273	MY LIFE
-1.255273	MY REFLEXES
-1.255273	MY SISTER
-1.255273	MY VOICE
-1.255273	MY WAYS
-0.60206	MYSELF </s>
-0.60206	MYSELF MUTTERING
-0.30103	MYSTERIOUS INCIDENTS
-0.1760913	NAILED IT
-0.30103	NAME OF
-0.30103	NANCY'S </s>
-0.30103	NAP </s>
-0.30103	NAVAL </s>
-0.60206	NEAR </s>
-0.60206	NEAR THE
-0.30103	NEARBY </s>
-0.30103	NEARLY NINETY-THREE
-0.30103	NEAT </s>
-0.30103	NED </s>
-0.30103	NEED UPDATING
-0.60206	NEEDED </s>
-0.60206	NEEDED SACRIFICE
-0.7781513	NEEDS LOTS
-0.7781513	NEEDS MORE
-0.7781513	NEEDS PROPER
-0.30103	NEGLECT THE
-0.30103	NEST </s>
-0.39794	NEVER FAIL
-0.69897	NEVER FIT
-0.7781513	NEW </s>
-0.7781513	NEW EPISODE
-0.7781513	NEW HIGHWAY
-0.60206	NICE </s>
-0.60206	NICE DESSERT
-0.544068	NIGHT </s>
-0.845098	NIGHT AFTER
-0.845098	NIGHT THEY
-0.30103	NINE </s>
-0.30103	NINETY-THREE YEARS
-1	NO </s>
-1	NO BIG
-1	NO CONFIRMATION
-1	NO DESIRE
-1	NO FEAR
-0.30103	NOBODY REALLY
-0.30103	NOD </s>
-0.7781513	NOT A
-0.7781513	NOT SERIOUSLY
-0.7781513	NOT SURE
-0.30103	NOTCH ABOVE
-0.30103	NOTED THE
-0.69897	NOTHING HAS
-0.39794	NOTHING IS
-0.30103	NOTICED TWO
-0.30103	NOVEMBER </s>
-0.1760913	NOW I'M
-0.1760913	NUMBER OF
-0.30103	NUT </s>
-0.60206	OBSERVE </s>
-0.60206	OBSERVE HIM
-0.30103	OBSTACLES </s>
-0.30103	OBTAIN POPULARITY
-0.30103	OBTAINING OUR
-0.30103	OCCUR </s>
-0.30103	OCEAN </s>
-0.30103	ODD BEHAVIOR
-1.439333	OF </s>
-1.740363	OF AN
-1.740363	OF APPLIANCES
-1.740363	OF BLACK
-1.740363	OF COMPETITORS
-1.740363	OF CREDIT
-1.740363	OF CUTTING
-1.740363	OF DAILY
-1.740363	OF GAS
-1.740363	OF HEAT
-1.740363	OF HIS
-1.740363	OF IT
-1.740363	OF MASONRY
-1.740363	OF MY
-1.740363	OF OTHER
-1.740363	OF POTATOES
-1.740363	OF PUBLIC
-1.740363	OF SCHOOL
-1.740363	OF SHOES
-1.740363	OF SOCIALIZED
-1.740363	OF SUCH
-1.041393	OF THE
-1.740363	OF THIS
-1.740363	OF TRANSITION
-1.740363	OF WIRE
-0.60206	OFF ON
-0.60206	OFF TAKING
-0.1760913	OFFENSIVE AS
-0.30103	OFFICIAL DEADLINE
-0.7781513	OFTEN BE
-0.7781513	OFTEN EXCLUDED
-0.7781513	OFTEN URGED
-0.30103	OIL </s>
-0.30103	OILY RAG
-0.30103	OK </s>
-0.6532125	OLD </s>
-0.9542425	OLD ALSO
-0.9542425	OLD MEN
-0.9542425	OLD TELEPHONE
-0.30103	OMITTED </s>
-0.845098	ON A
-0.243038	ON THE
-1.146128	ON WEIGHT
-1.20412	ONE </s>
-1.20412	ONE DAY
-1.20412	ONE DECISION
-1.20412	ONE FOR
-1.20412	ONE GALLON
-1.20412	ONE SIDE
-1.20412	ONE VALIDATED
-1.20412	ONE VOLUNTEERED
-0.30103	ONE'S COMPANY
-1	ONLY LAWYERS
-1	ONLY LEISURE
-1	ONLY ONE
-1	ONLY THE
-1	ONLY TWO
-0.30103	OOZE OR
-0.60206	OPEN AIR
-0.60206	OPEN THE
-1.146128	OR A
-1.146128	OR BE
-1.146128	OR ICE
-1.146128	OR LOWER
-1.146128	OR SNOW
-1.146128	OR WERE
-1.146128	OR WORRY
-0.30103	ORDER THE
-0.30103	ORGAN </s>
-0.30103	ORIGINAL FROM
-0.30103	OSCAR </s>
-0.544068	OTHER CASES
-0.845098	OTHER ITEMS
-0.845098	OTHER TRIPS
-1.079181	OUR BOAT
-1.079181	OUR DEGREES
-1.079181	OUR FANS
-1.079181	OUR SMALL
-1.079181	OUR START
-1.079181	OUR WHOLE
-0.544068	OUT </s>
-0.845098	OUT OF
-0.845098	OUT ONE
-0.30103	OUTDOORS ON
-0.30103	OUTGREW HER
-0.60206	OVER SILLY
-0.60206	OVER THE
-0.30103	OVERALLS </s>
-0.30103	OVERWHELMING THERE
-0.30103	OWE </s>
-0.30103	OWL </s>
-0.30103	OWN GAME
-0.60206	OWNER SHRUGGED
-0.60206	OWNER STRUGGLED
-0.30103	OWNERS REGULARLY
-0.30103	PACE </s>
-0.30103	PACKAGE HASTILY
-0.30103	PAD </s>
-0.30103	PAGE </s>
-0.30103	PAID </s>
-0.30103	PAIN </s>
-0.60206	PAINT </s>
-0.60206	PAINT A
-0.30103	PAINTERS </s>
-0.30103	PAINTINGS WERE
-0.30103	PAIR OF
-0.30103	PALE </s>
-0.30103	PANEL </s>
-0.30103	PANT </s>
-0.30103	PAPA </s>
-0.30103	PARK </s>
-0.60206	PART </s>
-0.60206	PART OF
-0.30103	PARTICIPATE IN
-0.30103	PARTS SUPPLIES
-0.30103	PAST </s>
-0.30103	PASTE </s>
-0.30103	PAT </s>
-0.30103	PAY </s>
-0.30103	PEACH </s>
-0.30103	PEAS </s>
-0.30103	PECK OF
-0.30103	PEER </s>
-0.6532125	PEOPLE ARE
-0.9542425	PEOPLE IN
-0.9542425	PEOPLE PARTICIPATE
-0.9542425	PEOPLE WHO
-0.30103	PERFORMANCE GAINED
-0.30103	PERIOD OF
-0.30103	PERSONAL GRIEVANCES
-0.30103	PET </s>
-0.30103	PETE </s>
-0.30103	PETTICOATS </s>
-0.60206	PETTY JEALOUSIES
-0.60206	PETTY PERSONAL
-0.7781513	PHONE </s>
-0.7781513	PHONE CALLS
-0.7781513	PHONE MAKE
-0.30103	PICK A
-0.30103	PICKPOCKET WAS
-0.30103	PICKPOCKETS ACCOMPLISH
-0.30103	PICNIC ON
-0.30103	PIE MAKES
-0.30103	PILE </s>
-0.30103	PILL </s>
-0.30103	PINK </s>
-0.30103	PIT </s>
-0.30103	PITTING </s>
-0.7781513	PLACE FOR
-0.7781513	PLACE JIM'S
-0.7781513	PLACE THOUGH
-0.30103	PLACES WHERE
-0.30103	PLANT NEEDS
-0.60206	PLAY </s>
-0.60206	PLAY THIS
-0.7781513	PLAYED </s>
-0.7781513	PLAYED BASKETBALL
-0.7781513	PLAYED VERY
-0.30103	PLAYERS GET
-0.30103	PLAYS SKILLFULLY
-0.60206	PLEASE DESCRIBE
-0.60206	PLEASE OPEN
-0.30103	PLEASED WITH
-0.60206	PLEASURE </s>
-0.60206	PLEASURE AND
-0.30103	PLOT IS
-0.30103	PLUMBING LEAKS
-0.30103	POCKET </s>
-0.30103	POCKETS OF
-0.30103	POLE </s>
-0.30103	POND </s>
-0.30103	POOR </s>
-0.30103	POPULAR WITH
-0.30103	POPULARITY </s>
-0.30103	POPULATED </s>
-0.60206	PORCH </s>
-0.60206	PORCH STEPS
-0.30103	PORCUPINES RESEMBLE
-0.30103	PORK </s>
-0.30103	PORT </s>
-0.30103	PORTRAIT </s>
-0.30103	POSITION COVERS
-0.30103	POSTDATE A
-0.30103	POSTPONED </s>
-0.30103	POT </s>
-0.30103	POTATOES </s>
-0.60206	PRACTICAL </s>
-0.60206	PRACTICAL IF
-0.30103	PREACH </s>
-0.30103	PRECIOUS </s>
-0.30103	PREDICAMENT </s>
-0.30103	PREFER THE
-0.30103	PREPARED FOR
-0.30103	PRESCRIBE DRUGS
-0.30103	PRESENT </s>
-0.30103	PRESERVE </s>
-0.30103	PRETTY </s>
-0.30103	PREVENTS </s>
-0.30103	PRICE INCREASES
-0.30103	PRIMITIVE TRIBES
-0.30103	PRIOR </s>
-0.60206	PROGRAM </s>
-0.60206	PROGRAM OF
-0.30103	PRONOUNCED FEELING
-0.30103	PROPER MAINTENANCE
-0.30103	PROPOSED GRANTS
-0.30103	PROSECUTED AND
-0.30103	PROSPECT OF
-0.30103	PROUD CLAIM
-0.60206	PROVIDES FOR
-0.60206	PROVIDES MANY
-0.30103	PROVOKED AN
-0.30103	PROWLER WORE
-0.30103	PUBLIC EDUCATION
-0.30103	PULL </s>
-0.30103	PUNCH </s>
-0.30103	PUPPETS DELIGHT
-0.30103	PURE PLEASURE
-0.30103	PUT ON
-0.30103	QUART </s>
-0.30103	QUEBEC </s>
-0.7781513	QUICK BLAZE
-0.7781513	QUICK BROWN
-0.7781513	QUICK TOUCHDOWN
-0.60206	QUICKER </s>
-0.60206	QUICKER THAN
-0.30103	QUICKLY </s>
-0.60206	QUITE COLORFUL
-0.60206	QUITE VOCAL
-0.30103	QUIVERS A
-0.30103	RACE </s>
-0.30103	RACKS </s>
-0.30103	RAG LIKE
-0.30103	RAGE </s>
-0.30103	RAID </s>
-0.30103	RAILROAD'S FUTURE
-0.1760913	RAIN </s>
-0.30103	RAISINS OUTDOORS
-0.30103	RAKE </s>
-0.30103	RAKES </s>
-0.30103	RAMP </s>
-0.60206	RANGE </s>
-0.60206	RANGE WAS
-0.30103	RARE LIE
-0.30103	RAT </s>
-0.30103	RATE </s>
-0.30103	RATHER PROUD
-0.30103	RATTLE </s>
-0.30103	RAVE </s>
-0.30103	RAY </s>
-0.30103	REACH </s>
-0.30103	READ </s>
-0.30103	READY FOR
-0.60206	REAL OBSTACLES
-0.60206	REAL SMOOTH
-1.113943	REALLY ALL
-1.113943	REALLY APPEALING
-0.8129134	REALLY CRUCIFIED
-1.113943	REALLY EXPECTS
-1.113943	REALLY HAVE
-1.113943	REALLY SHOOK
-0.30103	REAP </s>
-0.60206	RECEIVED ALL
-0.60206	RECEIVED ANNOYING
-0.30103	RED </s>
-0.30103	RED-HANDED </s>
-0.30103	REEF </s>
-0.30103	REEK </s>
-0.30103	REFER </s>
-0.30103	REFLECT YOUR
-0.30103	REFLEXES ARE
-0.30103	REGULAR ATTENDANCE
-0.30103	REGULARLY LOOK
-0.30103	REGULATIONS </s>
-0.30103	RELAXED </s>
-0.30103	REMAINS THE
-0.30103	RENTER </s>
-0.30103	REPLACE IT
-0.30103	REPORT </s>
-0.30103	REPORTED </s>
-0.30103	REPRESS </s>
-0.30103	REQUESTS THAT
-0.30103	REQUIRED </s>
-0.30103	REQUIRES NO
-0.30103	RESEMBLE SEA
-0.30103	RESERVE </s>
-0.30103	RESPECT </s>
-0.30103	REST </s>
-0.30103	RESULTED </s>
-0.30103	RESULTS WERE
-0.30103	RETIREMENT INCOME
-0.30103	RETRACT </s>
-0.30103	REVIEW EVERY
-0.30103	REWARDED BY
-0.30103	RICH </s>
-0.30103	RID </s>
-0.7781513	RIDE </s>
-0.7781513	RIDE ON
-0.7781513	RIDE STAGECOACH
-0.60206	RIGHT </s>
-0.60206	RIGHT HERE
-0.30103	RIP </s>
-0.60206	RISE </s>
-0.60206	RISE EARLY
-0.30103	ROAST MARSHMALLOWS
-0.30103	ROBIN WEAR
-0.30103	ROCK </s>
-0.30103	ROCKS </s>
-0.30103	RODE HORSEBACK
-0.30103	ROLL OF
-0.30103	ROMANTIC GIFT
-0.30103	ROMEO </s>
-0.30103	ROOM OR
-0.30103	ROOT </s>
-0.1760913	ROSES NEVER
-0.30103	ROW </s>
-0.30103	RULED IN
-0.30103	RUNG </s>
-0.30103	RUST </s>
-0.30103	RUT </s>
-0.30103	SABLE </s>
-0.30103	SACRIFICE </s>
-0.30103	SADDLE </s>
-0.4259687	SAID </s>
-0.90309	SAID I'D
-0.90309	SAID TRANSLATED
-0.30103	SAIL </s>
-0.30103	SAKE </s>
-0.30103	SAME LEG
-0.1760913	SAND </s>
-0.30103	SAP </s>
-0.7781513	SAT </s>
-0.7781513	SAT DOWN
-0.7781513	SAT THERE
-0.30103	SAVE MONEY
-0.60206	SAW HIM
-0.60206	SAW THREE
-0.30103	SAWS AND
-0.30103	SCHOLARS ARGUE
-0.30103	SCHOOL DISTRICTS
-0.30103	SCHOOLHOUSE STOOD
-0.30103	SCORCH </s>
-0.1760913	SCORE </s>
-0.30103	SCREAM TO
-0.30103	SCREECH </s>
-0.30103	SCREEN </s>
-0.30103	SCRUBBED THE
-0.30103	SCULPTURE IN
-0.60206	SEA </s>
-0.60206	SEA URCHINS
-0.30103	SEAM </s>
-0.30103	SEAT </s>
-0.30103	SEE </s>
-0.30103	SEED </s>
-0.30103	SEEDS </s>
-0.30103	SEEMED REALLY
-0.30103	SEEN THAT
-0.30103	SELDOM REQUIRED
-0.30103	SELECT </s>
-0.30103	SELECTED PLACES
-0.60206	SELL </s>
-0.60206	SELL THEM
-0.30103	SENDER </s>
-0.30103	SERGEANT </s>
-0.30103	SERIOUSLY INJURED
-0.30103	SERVE </s>
-0.30103	SERVES MEALS
-0.30103	SERVICE SHOULD
-0.30103	SEVEN </s>
-0.60206	SEVERAL BUTTONS
-0.60206	SEVERAL PAINTINGS
-0.30103	SEW </s>
-0.30103	SEWS YELLOW
-0.30103	SHARE </s>
-0.30103	SHAWL </s>
-1.30103	SHE </s>
-1.30103	SHE DOESN'T
-1.30103	SHE HAD
-1	SHE IS
-1.30103	SHE MAKES
-1.30103	SHE SUGGESTED
-1	SHE WAS
-1.30103	SHE WILL
-1.30103	SHE WORE
-0.30103	SHEAR </s>
-0.30103	SHED </s>
-0.30103	SHEEP </s>
-0.30103	SHEER </s>
-0.30103	SHEET </s>
-0.30103	SHELL </s>
-0.30103	SHELLED CLAMS
-0.30103	SHELLS ON
-0.30103	SHERIFF SAID
-0.30103	SHIMMERS ON
-0.30103	SHIN </s>
-0.30103	SHIP </s>
-0.30103	SHOES WAS
-0.30103	SHOOK UP
-0.30103	SHOOT </s>
-0.30103	SHOP </s>
-0.30103	SHORE </s>
-0.7781513	SHORT </s>
-0.7781513	SHORT AND
-0.7781513	SHORT WALK
-0.30103	SHORTAGE CAUSED
-0.30103	SHOT </s>
-0.30103	SHOULD BE
-0.30103	SHOW </s>
-0.30103	SHOWER </s>
-0.30103	SHRED </s>
-0.30103	SHRUGGED </s>
-0.30103	SHUT </s>
-0.30103	SHY </s>
-0.30103	SICKER </s>
-0.60206	SIDE </s>
-0.60206	SIDE GOT
-0.30103	SIERRA </s>
-0.30103	SIGH </s>
-0.30103	SIGHT </s>
-0.30103	SIGN </s>
-0.30103	SILLY ITEMS
-0.30103	SILVERWARE CAN
-0.30103	SIMPLE VOCABULARY
-0.30103	SIN </s>
-0.30103	SINCE </s>
-0.30103	SING </s>
-0.30103	SINGER'S FINGER
-0.30103	SINGLE </s>
-0.30103	SINK </s>
-0.30103	SIP </s>
-0.30103	SISTER MADE
-0.30103	SIT </s>
-0.30103	SITTER </s>
-0.30103	SITTING </s>
-0.30103	SITUATION </s>
-0.30103	SIX </s>
-0.30103	SKETCH </s>
-0.30103	SKI MASK
-0.30103	SKILLFULLY AND
-0.30103	SKILLS </s>
-0.30103	SKIP AH
-0.30103	SLAY </s>
-0.30103	SLEEP </s>
-0.30103	SLICKER </s>
-0.30103	SLID </s>
-0.30103	SLIGHTLY DAMAGED
-0.30103	SLIM </s>
-0.1760913	SLIP </s>
-0.60206	SLOWLY </s>
-0.60206	SLOWLY TAKES
-0.30103	SLUMS AND
-0.60206	SMALL </s>
-0.60206	SMALL ORGAN
-0.30103	SMOKE LESS
-0.30103	SMOOTH THE
-0.30103	SNAKE </s>
-0.30103	SNOOP </s>
-0.30103	SNORT </s>
-0.60206	SNOW BLEW
-0.60206	SNOW OR
-0.60206	SO HE
-0.60206	SO IF
-0.30103	SOCIAL DIRECTOR
-0.30103	SOCIALIZED MEDICINE
-0.60206	SOLD </s>
-0.60206	SOLD AT
-0.30103	SOLICITS BY
-1	SOME HOTELS
-1	SOME LIGAMENT
-1	SOME NEW
-1	SOME PREFER
-1	SOME USED
-0.30103	SOMEPLACE TO
-0.30103	SOMETHING TO
-0.30103	SOON FOUND
-0.30103	SORT </s>
-0.30103	SOUL </s>
-0.30103	SOULS HAVE
-0.30103	SOURCES </s>
-0.30103	SPACE </s>
-0.30103	SPADE </s>
-0.30103	SPAIN </s>
-0.4771213	SPARK </s>
-0.4771213	SPARK SPARK
-0.30103	SPARSELY POPULATED
-0.30103	SPEAK UP
-0.30103	SPEAKS HIS
-0.30103	SPENDING IS
-0.30103	SPIT </s>
-0.30103	SPLINTER </s>
-0.30103	SPLIT </s>
-0.1760913	SPORT </s>
-0.30103	SPRAIN </s>
-0.30103	SPRAY </s>
-0.30103	SPREAD THROUGH
-0.60206	SPRING STREET
-0.60206	SPRING WATER
-0.30103	SPRINKLE </s>
-0.30103	SQUARED AWAY
-0.30103	STABLE </s>
-0.30103	STAFF DESERVES
-0.30103	STAGECOACH </s>
-0.30103	STALL </s>
-0.30103	STANDBY CAN
-0.1249387	START </s>
-0.60206	STATE </s>
-0.60206	STATE OF
-0.30103	STATES </s>
-0.30103	STATUS TO
-0.30103	STEAK </s>
-0.30103	STEEL KIND
-0.30103	STEEP PRICE
-0.30103	STEER </s>
-0.30103	STEPS </s>
-0.30103	STICK </s>
-0.30103	STICKS </s>
-0.7781513	STILL LITTLE
-0.7781513	STILL THINKS
-0.7781513	STILL TO
-0.30103	STIMULATING DISCUSSIONS
-0.30103	STOOD EMPTY
-0.60206	STORE </s>
-0.60206	STORE SERVES
-0.30103	STORM </s>
-0.60206	STRAIGHT AHEAD
-0.60206	STRAIGHT AND
-0.30103	STRANGE </s>
-0.30103	STRAW MAKES
-0.60206	STREET </s>
-0.60206	STREET IS
-0.30103	STRETCH </s>
-0.30103	STRETCHER </s>
-0.30103	STRIKE SPREAD
-0.30103	STRONG AND
-0.30103	STRONGLY DISLIKES
-0.1760913	STRUCTURES HOUSING
-0.30103	STRUGGLED </s>
-0.30103	STUBBLE </s>
-0.30103	STUDENTS WATCHED
-0.30103	STUDENTS' ATTENTION
-0.30103	STUFF </s>
-0.30103	SUBTRACT </s>
-0.30103	SUBTRACTION ARE
-0.30103	SUCCESS </s>
-0.60206	SUCH A
-0.60206	SUCH MASSIVE
-0.30103	SUDDENLY MY
-0.30103	SUGGESTED WE
-0.60206	SUIT </s>
-0.60206	SUIT IN
-0.30103	SUM FOR
-0.30103	SUN DIED
-0.30103	SUNSHINE SHIMMERS
-0.30103	SUPER </s>
-0.30103	SUPPLIES AND
-0.30103	SUPPRESS </s>
-0.60206	SURE WHAT
-0.60206	SURE YOU
-0.30103	SURROUNDS YOU
-0.30103	SURVIVE </s>
-0.60206	SWAM ACROSS
-0.60206	SWAM AROUND
-0.30103	SWARM </s>
-0.30103	SWAY </s>
-0.30103	SWEATERS </s>
-0.30103	SWIFTLY AS
-0.30103	SWING YOUR
-0.30103	SWORE </s>
-0.30103	SYMBOLS </s>
-0.30103	TABLE </s>
-0.30103	TAIL </s>
-0.845098	TAKE </s>
-0.544068	TAKE A
-0.845098	TAKE ADVANTAGE
-0.30103	TAKES A
-0.60206	TAKING A
-0.60206	TAKING LONGER
-0.30103	TALKED ABOUT
-0.30103	TALL </s>
-0.30103	TANGO </s>
-0.30103	TAP </s>
-0.30103	TASKS COMMON
-0.30103	TAX-AIDED RETIREMENT
-0.30103	TEA </s>
-0.30103	TEACH </s>
-0.30103	TEAM </s>
-0.30103	TELEPHONE BOOTHS
-0.90309	TELL </s>
-0.90309	TELL AN
-0.90309	TELL PEOPLE
-0.90309	TELL YOU
-0.30103	TEMPER </s>
-0.30103	TENANT'S GRIEVANCES
-0.30103	TENDER </s>
-0.30103	TERM </s>
-0.544068	THAN I
-0.845098	THAN NANCY'S
-0.845098	THAN THE
-0.9294189	THAT </s>
-1.230449	THAT CANTEEN
-1.230449	THAT FLOWERS
-1.230449	THAT FRIEND
-1.230449	THAT GUARD
-1.230449	THAT PICKPOCKET
-1.230449	THAT PLANT
-1.230449	THAT SURROUNDS
-0.69897	THAT'S THE
-0.39794	THAT'S WHAT
-2.313867	THE </s>
-2.313867	THE ABOVE
-2.012837	THE APARTMENTS
-2.313867	THE AUCTION
-2.313867	THE BANKERS
-2.012837	THE BEACH
-2.313867	THE BIG
-2.313867	THE BOOKS
-1.836746	THE BOX
-2.313867	THE CHILDREN
-2.313867	THE CHOWDER
-2.313867	THE COMMUNITY
-2.313867	THE DEPOT
-2.313867	THE DOLPHINS
-2.313867	THE DOUGH
-2.313867	THE EASTERN
-2.313867	THE ECONOMY
-2.313867	THE ENABLING
-2.313867	THE ENTIRE
-2.313867	THE FACT
-2.313867	THE FAMILY
-2.313867	THE FARM
-2.313867	THE FIELD
-2.313867	THE FIERCEST
-2.313867	THE FIRST
-2.313867	THE FISH
-2.313867	THE FLOORS
-2.313867	THE FLOWERED
-2.012837	THE FOUR
-2.313867	THE GAME
-2.313867	THE GOLFING
-2.012837	THE HOTEL
-2.313867	THE HUMIDITY
-2.313867	THE IDIOTIC
-2.313867	THE ISLANDS
-2.012837	THE JOB
-2.313867	THE KAT
-2.313867	THE LACK
-2.313867	THE LARGEST
-2.313867	THE LAZY
-2.313867	THE LEGISLATURE
-2.012837	THE LITTLE
-2.313867	THE MARRIAGE
-2.313867	THE MAYONNAISE
-2.313867	THE MISGUIDED
-2.313867	THE MISPRINT
-2.313867	THE MOST
-2.313867	THE MUSEUM
-2.313867	THE NAME
-2.313867	THE NEW
-2.313867	THE OCEAN
-2.313867	THE ONLY
-2.313867	THE OOZE
-2.313867	THE OPEN
-2.313867	THE OWNERS
-2.313867	THE PACKAGE
-2.313867	THE PAIR
-2.313867	THE PAST
-2.313867	THE PLOT
-2.313867	THE POND
-2.313867	THE POOR
-2.313867	THE PORCH
-2.313867	THE PROSPECT
-2.313867	THE PROWLER
-2.313867	THE PUPPETS
-2.313867	THE QUICK
-2.313867	THE RESULTS
-2.313867	THE SAME
-2.313867	THE SCREEN
-2.313867	THE SHERIFF
-2.313867	THE SINGER'S
-2.313867	THE SITUATION
-2.313867	THE SNOW
-2.313867	THE STAFF
-2.313867	THE START
-2.012837	THE STATE
-2.313867	THE STORE
-2.313867	THE STRETCHER
-2.313867	THE STRIKE
-2.012837	THE STRUCTURES
-2.313867	THE SUN
-2.313867	THE TENANT'S
-2.313867	THE THINGS
